solver_type L2R_L2LOSS_SVC_DUAL
nr_class 2
label 1 2
nr_feature 2752
bias -1
w
-0.0175450345925626 
-2.876998714710539e-11 
0.005507674862640327 
-5.965397366789871e-11 
-0.006075722454034066 
-1.899669334160237e-12 
-0.009891433507296118 
4.395435459731454e-11 
-0.01015350128121892 
4.5463553302423e-11 
-0.004199014046052474 
5.595799261936081e-11 
-0.01420769802205063 
3.658666662745702e-11 
-0.001110490644730226 
-3.859114346156278e-11 
-0.01206929972282195 
-5.904115654416134e-11 
0.0002733861291304483 
2.378538085155724e-11 
-0.01082415002141339 
-1.393656890065057e-11 
-0.007937935566355596 
9.224155727107149e-11 
-0.006095203567135598 
-1.240681725455152e-10 
-0.02939506119730106 
4.535598897709846e-11 
-0.02178525473010633 
3.886148968835491e-11 
-0.002185242019532635 
-1.22863896637423e-11 
-0.01333667585978679 
-9.966671783108538e-12 
-0.0004590011114646139 
9.681815287097489e-11 
0.0002155388834940522 
1.378216454503649e-10 
-0.000177183183512099 
8.640640115587141e-12 
-0.01432672991488801 
-6.067604024633712e-11 
-0.02516650649089106 
1.366241776084005e-10 
-0.0001733975711721026 
-1.26991882814527e-10 
0.003359043759289933 
1.548077343002021e-11 
-0.005810270471582916 
-4.204194265312015e-12 
0.006736477713954415 
-1.052453533289252e-10 
0.02288673026937327 
-7.607950679874559e-11 
-0.01272410932039649 
7.354284597166187e-11 
-0.01319627667578152 
1.50016386857746e-10 
-0.01668137275785536 
-2.159569511465037e-11 
0.01216008201504419 
2.963390264337676e-11 
0.001664701487376544 
1.000073880353108e-10 
0.002184307433957891 
2.542086785970013e-11 
-0.0142871066709218 
-1.080780720661374e-10 
0.004731549608959399 
1.307922325509388e-10 
0.009650256192922497 
6.92290129415827e-11 
0.005680206048466533 
-5.168115409687044e-11 
-0.02418542082374875 
-2.803540107102426e-11 
-0.005800147898580351 
6.085546980629134e-11 
-0.001051621444400357 
-3.954943954240835e-11 
-0.006335660878350346 
4.786177830844787e-11 
-0.007337221828011936 
-7.357390517517063e-11 
0.004411787746377145 
-1.143336499388413e-10 
0.01423746525960893 
-4.849173260778759e-11 
-0.003365958901925357 
-4.715281156777708e-11 
-0.01546118405650127 
-1.297050379607023e-10 
-0.009289741263584839 
6.528110171750032e-11 
-0.004928093393033108 
5.583395057871733e-11 
-0.0006766381011345942 
7.142483854372821e-12 
-0.01045417593944358 
-1.148531295101725e-10 
-0.004636074391110012 
2.981340409350795e-11 
0.004957457526499418 
1.340485338460422e-11 
-0.005487242437279506 
-4.812700165877147e-11 
-0.01222779356672806 
-3.084589527763572e-12 
-0.02700933929017429 
8.445359648382098e-11 
0.008651373600287376 
-7.932166289135502e-11 
-0.01742177111196038 
7.034918710843057e-11 
0.01406142172788698 
-3.314822062325915e-11 
0.004799335720440678 
-2.190913655552889e-12 
-0.01737566915579851 
-1.866380802628728e-11 
-1.22625107779388e-06 
1.851850694407524e-11 
-0.001088732371477376 
1.063102728122601e-10 
-0.01941748761147776 
2.306671176302273e-11 
0.002102063397287227 
-3.558875241878319e-11 
-0.01802228764653761 
7.350364620654522e-12 
0.007281396921881526 
3.329555899749729e-11 
-0.003401488482494032 
-1.48497820030406e-10 
-0.004746766534056725 
1.107494483643192e-10 
-0.01156329513200576 
-1.439453790612671e-10 
0.00170560971120756 
-4.605291650346382e-11 
0.001149462718497641 
6.290322150804207e-11 
-0.003506183548105934 
-3.75282398257755e-11 
-0.02184709854689542 
1.128820358959868e-10 
-0.007550083709910115 
-1.19621463402449e-10 
-0.004961888209266173 
4.996950588500026e-11 
-0.007277173414701401 
2.724032144976356e-11 
-0.01919679187446065 
-4.608652189392817e-11 
-0.002435796590830356 
5.247475020929346e-11 
-0.005058765223147228 
-1.993302654431418e-11 
-0.008899231677248653 
1.126225327305524e-10 
-0.01553958858048654 
-7.223663541168081e-11 
-0.009463942943984113 
2.736606065409031e-11 
-0.001853723543999384 
-1.323055704370447e-11 
-0.01188007529391976 
-4.84713051946606e-11 
-0.01346802961787521 
-9.247086045071113e-11 
-0.01256143858828567 
1.070397760274785e-10 
-0.0009729365638244437 
-6.921860286173492e-11 
-0.003242652947840302 
7.039542568326053e-11 
-0.005251620686982678 
-6.747601491683741e-11 
-0.02364108798724104 
-2.970373061278874e-12 
-0.004380635791397408 
1.572161611731773e-11 
-0.004862101995461207 
8.652305891465792e-12 
-0.01879783525501466 
2.146720643375569e-11 
-0.02466843672859211 
-8.613220278004908e-12 
0.00166929320168197 
-3.224065475707174e-11 
-0.00148555809097147 
1.168341430291269e-10 
-0.004947055128782037 
1.125149682410976e-10 
-0.01715311723837096 
-1.583207748782645e-11 
-0.01194665229294053 
-1.733088880095957e-10 
-0.0139850397737287 
-2.977012277294813e-11 
0.01963957000600767 
2.901003004866413e-12 
-0.02795980537478213 
-3.174575696776771e-11 
-0.01477537270458971 
6.57749532486634e-11 
-0.005654377574509146 
1.589392502774283e-10 
0.007029597617729599 
-5.586928188354524e-11 
-0.02600875039188761 
-9.220920438508912e-12 
-0.02119622132428042 
-9.096245220251604e-11 
-0.01586683573363838 
-4.473445203264081e-11 
-0.01581378109480621 
-1.911283181076112e-11 
-0.02411594404819095 
-1.580249391813908e-10 
-0.02855295957819232 
-2.201866499805856e-11 
0.003270651132376945 
8.380473468346833e-12 
-0.008239369953253079 
4.372001327006325e-11 
-0.01329175157897396 
-1.098346983898342e-10 
-0.01028434265616663 
6.9740385714785e-11 
0.007034266093696454 
4.517884720179276e-11 
0.0197433370063223 
-9.400335815700269e-11 
-0.01956643157920498 
-7.814134715397472e-11 
-0.02163760747789494 
1.737069322580712e-11 
-0.01530370906679182 
3.207043501001483e-11 
-0.01226637458051411 
-5.568096170230942e-11 
-0.006759286602776536 
-2.582079127304989e-12 
-0.008874375792184593 
7.763688620263605e-11 
-0.01063208517568116 
2.320031559061404e-11 
0.001306935765671068 
5.064251573170688e-11 
-0.0005181554894700141 
-8.990152390271439e-11 
-0.004038122818620695 
-2.353260831886367e-11 
-0.00364049469903023 
9.306702576053076e-11 
0.0004150901736662117 
-2.789790225671684e-12 
0.00343989075937499 
-7.849401611032671e-11 
-0.0002675651057463175 
-7.232795770423424e-11 
-0.001448473764522517 
-1.257852169835213e-10 
-0.009085864079762947 
3.204771868752663e-11 
0.003838402298904503 
7.749450930002775e-11 
-0.003240852805688852 
6.52604230046882e-12 
-0.001415357808587897 
-1.078260813975683e-10 
-0.007885234882050009 
1.368593152075375e-10 
-0.002116918718384164 
1.882838239603078e-11 
-0.009447977955148949 
-3.958981805955524e-11 
-0.01260592356270568 
-2.814595638118179e-11 
-0.007523026150357756 
-4.928875884533861e-11 
-0.01066673757671897 
-5.447572930535466e-11 
-0.01022312353127835 
-6.353057162646459e-11 
-0.006659081553984378 
8.449328971727578e-11 
-0.001915587646914069 
1.361067127482827e-10 
-0.002412135633590605 
1.140131227270302e-11 
-0.006278546072930736 
4.549289526181212e-11 
-0.00101208456869141 
5.02875948603137e-11 
9.058773405534337e-05 
1.083662313999473e-10 
0.003730467770124798 
-3.222060329068191e-11 
0.0006471980248632225 
-1.864215914103957e-13 
-0.01279157760865028 
2.702802956246733e-11 
-0.002158365978559397 
4.246109930903409e-11 
-0.01822671899164647 
-8.212914305019898e-12 
-0.02936256782674405 
-1.38638053511923e-10 
-0.0160312080238733 
-1.016250380617933e-10 
-0.0003490568036286078 
3.472097017031183e-11 
-0.01920758797830262 
-1.312323792534674e-10 
-0.01050659823690213 
1.01759536561007e-10 
-0.01346115393929016 
-2.55577741409288e-11 
-0.001646691600828718 
-2.789994574995588e-11 
-0.02248083502052716 
-2.393229505710549e-11 
-0.02728759567239221 
8.733183460438188e-11 
-0.01231889314374625 
-1.264045795341376e-10 
0.0111627727753592 
5.056715962567659e-11 
-0.01882772443096028 
-3.399628706962917e-11 
-0.01482731189718744 
-1.950113916307828e-10 
-0.0002085918224902415 
8.816180433814202e-11 
-0.008295152419318587 
-6.502317765789492e-11 
-0.03333226214332196 
4.588801636910852e-12 
-0.01344388423309507 
-5.286244698928916e-11 
-0.01817042167505482 
7.366622427110552e-12 
0.009335323099680087 
2.950848216845741e-11 
-0.02047984379566904 
1.636237275145276e-11 
-0.007922067941342679 
-8.213548747867633e-11 
-0.002123551829660785 
-4.63249969251148e-11 
-0.00623996348900809 
7.742940378132413e-11 
-0.01666123686081299 
-1.073968529959787e-10 
-0.01158944286120984 
-3.083586578032925e-11 
-0.01039190612830971 
-1.761498120901656e-11 
-0.001802382392529274 
-1.069689780339631e-10 
-0.01113991009078155 
-5.51088072390982e-11 
-0.00674970801084789 
1.260131093892814e-10 
-0.003336925655625758 
-8.171555967870097e-11 
-0.01275893523299343 
-1.075058056015449e-10 
-0.002120999641371965 
1.211451859988772e-11 
-0.01392347025383612 
-9.597117069266688e-11 
0.00083995957857289 
-9.919168947036018e-11 
-0.001070250870629161 
1.062263511958428e-11 
-0.01288772171064822 
5.197334459113025e-11 
-0.009340952787214111 
3.008863743317395e-11 
-0.01230401190751325 
-2.172906085296428e-11 
0.00962836170075454 
-8.398869105486629e-11 
-0.003086991141217213 
1.176567504510514e-10 
-0.009874971974522907 
5.633005977716007e-11 
-0.002639853337235818 
-1.82627501497686e-12 
-0.01340920573104254 
3.133557524735219e-11 
0.008440160353269702 
-1.364558999401999e-10 
-0.008996578662953855 
-3.429069380183991e-11 
-0.008790258095452677 
-9.412844294476742e-11 
0.005729298380861602 
1.143584151415158e-12 
-0.01334483304635981 
-6.908907521760562e-11 
-0.01218992864676441 
4.074534009362101e-12 
-0.005221152635042638 
1.746961064911131e-11 
-0.009234731223894959 
-6.018252002007557e-11 
-0.005473855090661193 
1.750877371091479e-10 
-0.006478249235738169 
2.396198976881271e-11 
0.00135243325644671 
1.400224660666319e-10 
-0.001253458731114534 
-6.25939090228573e-11 
0.001416319736835761 
-1.130088890329483e-10 
-0.00780196882774975 
4.602199521533577e-11 
0.0009465143145651291 
1.445658094547556e-11 
-0.003857298353793123 
7.560374476274339e-11 
0.005734329670937946 
6.373989009134851e-11 
0.004937012842855871 
-2.395153002625612e-11 
-0.005549852383084251 
-1.018416972462921e-10 
-0.003365237529412137 
3.864611022219462e-11 
-0.007943493097433961 
-8.167679132841806e-11 
-0.006194174665155233 
-2.860082393242896e-11 
-0.002739272209279057 
9.136568964251854e-11 
-0.01432689559566357 
2.996349682167125e-11 
-0.01593436470319813 
-6.923632429008767e-11 
-0.002358240791041054 
2.103898073461216e-11 
0.003078516277470868 
3.521651641562186e-11 
0.005733508362704224 
-1.174220141689342e-10 
-0.01181279043150101 
-3.884264942247918e-11 
-0.01103750070193319 
-6.531167092445769e-11 
0.02470937563982008 
-1.8594286913178e-11 
0.008433932980550313 
3.988013424729675e-11 
-0.01463145083223658 
-7.391774738071163e-11 
-0.01313409710333057 
-9.529888572274424e-11 
-0.0001375220935782479 
-7.58273291202088e-11 
-0.004073171833467939 
4.537094220955063e-11 
-0.02357670678898601 
-2.043859201997146e-11 
-0.009111612116363335 
4.835800783197509e-11 
0.008334640702124089 
3.423304419798478e-11 
0.01262323579485432 
-1.055844761745671e-11 
-0.01154471280612956 
-2.499577215835906e-11 
-0.005085837079416452 
-4.636270233049407e-11 
-0.002424405073700401 
7.609471173422707e-11 
-0.01232273282446733 
-4.404027630014649e-11 
-0.01689696518281377 
-5.437501475533026e-11 
-0.005385135359018809 
7.058564276100963e-11 
-0.01833241307738645 
-6.256146939062007e-11 
0.0005476009436956566 
-3.420470313178517e-10 
-0.0004266645460116358 
1.145803209441481e-10 
0.007268734373195444 
-1.332337097372353e-10 
0.005978414952573979 
2.324879021390067e-11 
-0.00834470058514715 
-6.274046910498292e-11 
-0.02314717359371246 
2.937134651797965e-11 
-0.01416471469278048 
-1.629469320332254e-10 
-0.01050567167892353 
1.093413957850419e-10 
-0.02033750955606996 
-1.019552343020079e-10 
0.01229901861948327 
-2.561047315101925e-11 
0.01074472863808451 
3.566691613195621e-11 
-0.01254932933503404 
2.966969114932892e-12 
-0.001508990228546902 
1.457652210828142e-11 
0.0202842602705129 
1.08683166402439e-10 
0.003728399284621121 
1.061704663054161e-10 
-0.01312639226346921 
-3.240992896450763e-11 
-0.004703713301146761 
-5.747358164919765e-11 
-0.01592156351491997 
9.249857275428631e-11 
-0.004857486648378775 
-2.173963011950524e-11 
0.001957090582497583 
2.345569995760843e-11 
-0.004713703149264676 
-6.050044280603851e-12 
0.01596956153785289 
1.626239735717037e-11 
0.004391623795251184 
-6.69351313565053e-11 
-0.007103550271647207 
-4.49532265848237e-12 
-0.007390143740519236 
-1.011037487344205e-10 
0.002644637058304355 
-1.234871259011067e-11 
-0.008723649859819599 
-1.055178881951413e-10 
0.01187922916008133 
1.317692588126875e-10 
-0.006075466920640728 
-4.884280359890532e-12 
0.01398236316104493 
-1.636423486796129e-12 
-0.0138733531664688 
-3.179077777414603e-11 
0.002661123027048708 
1.821541358155215e-11 
-0.01791530396199247 
9.233598443880445e-11 
-0.01389979766861228 
6.336119248484975e-11 
-0.005504369548130166 
-1.632199956260014e-11 
0.005409468810691807 
9.172797519313565e-11 
-0.01027162455313836 
-1.854151762653366e-11 
0.02389790575606043 
-7.360868482921467e-12 
-0.009005906491245821 
6.946869233346061e-11 
-0.01784611367755095 
-1.340966864046626e-11 
-0.000712820322334573 
-8.055787555768929e-12 
0.008147639392270761 
1.343409535256291e-10 
0.00078148431698724 
4.17783281254265e-11 
0.0007305052255379951 
6.217989721302027e-11 
-0.003196003674661729 
-6.049576193573313e-11 
0.007509181473711657 
9.960619552949396e-12 
-0.006860174817054351 
-2.618577893485499e-11 
-0.009553003472554228 
-4.610948597283905e-11 
-0.004060815259766569 
9.127655480586281e-11 
-0.01755090689950679 
-1.405624129496858e-10 
-0.005908870376051437 
-1.641449898523397e-11 
0.005179962149549792 
-1.288216396486349e-11 
-0.01502820463439315 
3.887197213884622e-11 
0.01518295558987122 
4.545944934996449e-12 
-0.02189994410124052 
1.362654488441796e-11 
0.008328259282967855 
-6.497418483601142e-11 
0.003723522159791853 
-5.722384175491889e-11 
-0.0009022644036849649 
7.448204726933658e-11 
-0.0181350910961845 
-6.405062989216111e-11 
-0.003631301448595964 
1.083064107362432e-11 
-0.01850918885192206 
1.256296282856916e-11 
0.00968776524659155 
-7.661121402869507e-11 
-0.0004821011344138449 
-6.668703956735136e-11 
-0.01327921335715131 
8.272320347652735e-11 
0.005926672456086629 
1.918067238377906e-11 
-0.001325973351967597 
-2.474454446941338e-11 
-0.009208583700586104 
-8.545105592525847e-11 
-0.002981234054740456 
-1.056817624198459e-11 
-0.008735244012121305 
-2.090799080199836e-11 
0.002193496435352401 
4.661021996479405e-12 
-0.001492793775766081 
1.127847381019299e-10 
-0.01534300477859645 
-2.92782138063233e-11 
-0.007204245706042215 
-1.02265505597015e-10 
-0.006737245044471134 
-1.575833921408689e-11 
-0.01419001689664471 
-4.006461839591832e-12 
0.006095627731806598 
2.550155248994196e-11 
0.005626236615127587 
-8.395026636559536e-11 
0.009162271253012793 
1.035537634681962e-10 
0.001060642542390095 
1.436172270166669e-11 
0.008808098934526019 
4.749903707349353e-11 
0.0005472959329446143 
-1.09934286998817e-10 
0.009129380901807593 
1.783530103156271e-11 
-0.005718378785301859 
-1.242285138612861e-10 
0.01903052128669275 
3.713303735743753e-11 
0.002525226002970043 
-3.193599707924517e-11 
0.00710577856170041 
3.208496047859954e-11 
0.007406502041806661 
2.415409936005872e-10 
0.005417808965365654 
-7.417082791935693e-12 
0.00820565159809551 
1.329218547968583e-10 
0.01340499888617162 
5.697953640423331e-11 
0.0009351770588279888 
-3.094231962893995e-11 
0.02174902825169264 
1.840030828603681e-10 
-0.007780749786436668 
1.187464547019627e-10 
0.008253011565142994 
-1.067466069276137e-10 
-0.01234907705686268 
1.257754968116152e-10 
0.02102566350726714 
-9.215697444872358e-11 
0.00429024381131802 
-5.16415854333055e-11 
0.01720729754794043 
1.190040538233521e-11 
-0.01860243897752303 
-8.009103666329659e-11 
0.01168412495926202 
4.893255497126256e-11 
-0.002809539321606174 
5.626550418057733e-11 
-0.01748355780808736 
-7.04598767608984e-11 
0.0009945958782839326 
-8.260451931510828e-12 
0.02753979140487107 
4.999677961818953e-11 
0.02294909636194247 
-3.616133041350078e-11 
-0.02232665765625834 
1.27666937894262e-11 
-0.009527841090634865 
-2.877605767678342e-12 
0.0149543033715016 
7.932218563292283e-12 
-0.001104937305728725 
7.984562805489307e-11 
-0.01671473948177455 
-2.000236418471629e-12 
0.02600431302623932 
-5.907233355380293e-11 
0.002898458411550182 
-6.003914763128831e-11 
-0.009133135071178708 
2.493146176634822e-11 
-0.009680613457688289 
-1.914311058713795e-11 
0.00259507837043913 
-1.019607783783371e-11 
0.01000536649966159 
8.26080002219866e-11 
-0.01325622666929717 
-1.398016856494165e-10 
-0.0159416314419937 
1.380979038334214e-11 
0.02769206633936103 
-8.82708336030987e-11 
0.005263003825671449 
7.766497563694175e-11 
-0.02187119466951317 
-4.508239792020187e-12 
-0.01023202270946679 
-5.747519349931675e-11 
0.01375804734633776 
-2.55577365354218e-11 
0.01851509384941407 
-2.368376853697244e-11 
-0.009579206377723139 
-2.180758564363396e-11 
0.008697699302385172 
1.511623711726438e-11 
0.0277773323713441 
-2.277907806238996e-11 
0.01386439214196536 
-8.982586635374679e-11 
-0.0102490996048814 
-7.819204554554451e-11 
-0.007015845285619927 
4.762740938976179e-11 
0.02133979146131036 
-7.807297779649469e-11 
-0.01192238097739777 
2.389568128180113e-11 
-0.002830676955624735 
7.618191438071114e-11 
0.004934071488082161 
4.108381120213267e-11 
0.04095254801273959 
3.210594328461421e-11 
-0.005395940192373996 
9.535252182520127e-11 
-0.009112600380883644 
-3.090706480148507e-12 
-0.01101340987256706 
1.009705889789355e-10 
0.02145183193040259 
6.909969498450294e-11 
-0.004403492627657203 
4.792672797378886e-11 
0.008746029954572229 
-3.770507734928089e-11 
0.0226588825660415 
4.811202694993423e-11 
0.002510564488678132 
4.289909348222605e-11 
0.01748426849514614 
-9.465784627924948e-11 
0.01648280717556089 
5.204753597896561e-11 
0.01059198770543595 
9.620941650520531e-11 
0.01196552190767193 
-2.87811717828173e-11 
0.01417716946985012 
-9.758758342301975e-12 
-0.004932069845125051 
5.987508168361214e-11 
0.001484983378511535 
1.306094155974374e-10 
-0.001012133770322914 
4.569444276610074e-11 
-0.0003861984153650441 
-2.850052455521524e-11 
-0.01335766436940029 
3.206184656134386e-11 
0.01567060606981265 
-9.010947058666391e-12 
0.006359056071678432 
-7.854874511870716e-11 
0.008288147299987052 
2.538952577604717e-11 
-0.01196505001381286 
-3.440427097696597e-11 
-0.007392733523370822 
6.380616839372977e-11 
0.003551964014915726 
-4.288655966618372e-11 
0.01586758271679772 
-7.773655161593239e-12 
-0.002514957113356057 
3.909937009169505e-11 
0.02331731535847823 
9.021960362984936e-11 
0.02008855184582579 
-7.089873830468051e-11 
-0.004758321828831188 
8.423259237409445e-11 
-0.005423335790209888 
2.186490273855795e-11 
0.001063657574066053 
-5.300396632914356e-11 
0.01000530256188149 
-5.232536071363456e-11 
0.01206262755600283 
5.018624123511549e-11 
-0.009463419158907959 
-1.913272784928911e-11 
0.002552776779994223 
3.679435122585917e-11 
0.004418768552434057 
7.804818492479651e-11 
0.006714014210933 
-6.608325480870513e-11 
0.000823922640435483 
7.602243115852026e-11 
-0.008724679495783028 
-8.350392199690871e-12 
0.002529342131145551 
5.513130068763671e-11 
0.02233034006661062 
2.120672512369467e-11 
0.002619549423669893 
-4.212240850074991e-11 
-0.006182825007812421 
1.841596455858592e-11 
-0.009645062195039454 
2.188666876322732e-12 
0.01212319100612927 
-2.091098152911218e-11 
0.0007276700264632122 
4.843230242753391e-11 
-0.003221947213051823 
-2.644132736019945e-11 
-0.0006121292359332724 
-1.056338309916855e-11 
-0.005973376170218125 
8.860174357203852e-11 
-0.02280341075603665 
-8.634624793533345e-11 
0.006058498793509178 
-3.464415489394137e-11 
0.01077545421845494 
-8.406967161171737e-11 
0.02072264145713405 
1.331842621254453e-11 
-0.01054187537708372 
-3.714348706752073e-11 
-0.004598382455248734 
-1.950169462839153e-11 
0.01573642949703138 
9.613589498799857e-11 
0.01028542860898492 
6.384517996380782e-11 
-0.008747289318643605 
-7.885715441058878e-11 
0.001335239094876384 
-6.346190283754609e-12 
0.02220150911237149 
1.013105436872882e-11 
-0.02426201119427221 
-2.842647730340563e-11 
-0.008322626239152172 
-2.847334450900314e-11 
-0.01541380856482273 
-4.907468529725874e-11 
0.008934788997543977 
7.831161498582799e-11 
-8.221089009232198e-05 
9.357577415179337e-11 
-0.02151519413276111 
-1.063749614884584e-10 
-0.02038810154929704 
-1.287443177951882e-10 
0.03220839396995384 
2.113021281339662e-12 
-0.002777520420609204 
4.540937488258387e-11 
-0.003875157045471542 
-2.368809911292125e-11 
0.01566388509811396 
-5.02327479197794e-11 
0.008028835134046168 
-3.271272547194373e-11 
0.01700368343664345 
8.784990056442981e-11 
0.002692256773776918 
4.633753820049664e-11 
0.003329819296675279 
-5.95341406936517e-11 
-0.0003371126361149416 
1.420927658695657e-11 
0.01729125473714728 
-2.261298123274226e-11 
-0.003716351858085815 
-1.320704800420047e-10 
0.01902818645821781 
-1.992014732443858e-11 
0.01158978245814205 
-6.92353509077151e-11 
0.01011723706314655 
1.289336855035506e-11 
0.001050057844434245 
1.037049065113027e-10 
0.02145907087294486 
5.578718865704758e-11 
0.002149276685044268 
-1.362173888005511e-10 
0.01080653973719287 
1.04712667361142e-10 
0.001501084224110823 
2.77816452287921e-11 
0.01598196148281449 
-2.854121001730098e-11 
3.83962117503278e-05 
-4.497167406408569e-11 
0.01257721620158621 
7.22087028970392e-11 
0.01361743574115687 
1.519295529747807e-11 
0.0191697187124851 
-1.407055765363376e-11 
-0.00236574746979779 
-6.794135562790027e-11 
0.003966786442615959 
-6.841157526049121e-11 
0.01074536210354875 
-1.058435983814708e-10 
0.02123013765796733 
1.265067808539059e-10 
0.0002449004147555806 
3.540654424757465e-11 
0.006215043117505848 
-6.803407678788484e-11 
0.004529423508090107 
-6.03729841806233e-11 
0.02384744110583146 
-5.990057838900223e-11 
-0.004794472324041349 
2.290948323899422e-11 
0.004612877467218648 
7.269714577636637e-11 
0.000901051288115543 
-5.686127333931046e-12 
0.009818804082112878 
-8.079531923795423e-11 
0.002752831087245037 
2.591210347484438e-11 
-0.0009645638650099103 
1.368630711871008e-10 
0.004719425299190501 
8.829164715384767e-11 
0.00836111176766215 
-3.420091843352442e-11 
-0.01098710907988732 
1.684703990717561e-10 
0.006575302151383734 
2.034805120201815e-11 
-0.009003686201416184 
-1.913319733391515e-11 
0.0006726348012256804 
6.387052880083596e-11 
0.009185073665483124 
1.12414502650483e-10 
-0.005793773538721712 
-1.527839905432343e-11 
0.01762567217101978 
3.884039315974337e-11 
0.008441131129194717 
-9.28833966602528e-11 
-0.009296353075512511 
-7.068701324349577e-11 
-0.01073621283215148 
8.608340442954123e-11 
0.01598653128237684 
-3.831834902367632e-11 
0.0162429572699768 
-6.873512537667853e-11 
-0.007970863822936554 
-2.171690275606286e-11 
0.0006828362855492017 
-1.940970406444346e-10 
0.01378437597800438 
1.290315385306003e-10 
-0.001317906919634278 
-1.596693830725617e-11 
-0.0192831689052004 
-1.345385245604378e-10 
0.007934891873835122 
4.032781732212882e-11 
0.001966584406369739 
-8.14037448575115e-11 
-0.01986225362853583 
-3.094877376751163e-11 
-0.003007266441338474 
5.854656926273038e-11 
-0.01866529698706234 
1.63678594804006e-11 
-0.00316738111314996 
3.14195033120779e-11 
-0.02338125633208016 
8.107220020399787e-11 
-0.01973068285668094 
-1.090576881109369e-10 
0.004714043281903726 
3.942200162856847e-11 
-0.003804906349413147 
1.05088008134611e-11 
0.00327392519077696 
8.296778976405835e-11 
0.003065219626592506 
-3.556687845721255e-11 
0.01817631886949851 
5.179573435515693e-11 
-0.007003996016162672 
9.789055554091907e-11 
0.006066929264416819 
-6.817097547827257e-11 
0.002072751557665838 
-2.680631284418308e-11 
0.001835840704139176 
5.174499065008531e-12 
0.004916914289116555 
-1.299639380437338e-10 
0.01332311775602315 
5.686381779690885e-11 
0.01153246623392176 
-7.310657562496291e-11 
-0.007391293752648208 
-5.507546171135513e-11 
-0.004672636456820071 
1.011466978643142e-10 
0.004818543149735461 
-8.437679623243369e-11 
-0.001078865558642218 
8.368079612466325e-12 
0.01583905675395261 
-1.629635692265147e-11 
-0.007624046152674912 
6.158688247094176e-11 
0.004240645480633036 
4.36414615624459e-11 
0.0142451790585905 
-1.618168012235107e-10 
0.006748090686067124 
-9.838906437943643e-11 
-0.00205165277573222 
3.758815419100482e-11 
-0.004091136201856673 
-9.55451792683571e-11 
-0.004646565457857719 
-1.261289257473994e-10 
-0.005033259466732573 
5.338806928350487e-11 
0.006768839107194832 
-2.866718747077291e-11 
0.00777261256717653 
4.277923404033718e-11 
-0.01071387963922436 
-2.182999021388138e-11 
-0.003460551268472365 
-2.599346552921819e-11 
-0.001585747575184395 
2.194766858351294e-11 
-0.005088678268590624 
-1.210559906724722e-11 
-0.006149273214364156 
-2.42530204597328e-11 
0.005975922880197715 
4.78524835419056e-11 
-0.004830347516865324 
6.64965907074031e-11 
0.02406875300002736 
-3.101886570646704e-11 
0.008100964304618796 
-5.983255325950045e-11 
-0.007268025054100608 
1.304468699223157e-10 
0.005705650919706149 
7.047655939016711e-11 
0.00102824692952723 
-3.703236620817758e-11 
0.01080737363803528 
-9.644889008104095e-11 
-0.002257651620924743 
4.301634364995104e-11 
-0.0051294604677971 
4.333313312457665e-11 
-0.01222811260801898 
-3.049593911465801e-11 
-0.01793604828274308 
-2.953638170993093e-11 
-0.008080055988809537 
-3.561153810425354e-11 
-0.0005471259482589642 
-6.541119439227612e-11 
0.001640321259440991 
2.669181534357499e-11 
-0.006431084054076651 
1.468922501690164e-10 
-0.001282104277162192 
-1.90648340886121e-10 
0.003870470754329599 
-7.085660078596102e-12 
0.005952797583777676 
-1.203149615483939e-12 
0.006547733303902718 
-1.893789886831081e-11 
8.971852646655123e-05 
8.240438222866208e-11 
-0.005380516287832793 
2.559894081887708e-11 
0.01541003461395329 
-3.499681964463283e-11 
0.01297375909457774 
5.414521748779873e-11 
-0.007799831041167993 
3.307869212308193e-11 
0.007988742073404024 
-9.788805281595063e-12 
-0.01300598155541403 
-3.266489339540821e-11 
-0.02525967411427633 
4.897946241371119e-11 
-0.01806436788264834 
-5.390157965799165e-12 
-0.007671269467523563 
6.852738779473807e-12 
-0.02535615926275289 
4.920444128859756e-11 
-0.01763297796196288 
1.32030852875495e-10 
-0.0119644234991142 
5.8304639090599e-11 
0.008837579513073393 
-4.621432195189962e-11 
0.02280363714325395 
-6.211222009043429e-11 
0.01344555850571915 
-9.813853386732553e-11 
0.01100091290251587 
1.12454882696238e-10 
-0.002558891149842551 
1.221938942093197e-10 
0.01707110042650892 
-8.813669113429001e-12 
0.003864083753057039 
-1.316753892387491e-12 
0.01709611946139581 
-1.18195575819828e-11 
0.02147662193184776 
-2.614036129583703e-11 
0.0158612478267373 
-5.163403884987696e-12 
0.01476525017005243 
1.870959685951323e-11 
0.004638901051226263 
-7.870654254252696e-12 
0.001429848245183654 
-5.650292585781825e-11 
0.001283956306291902 
1.695719752606439e-11 
0.004090421287159827 
-9.637792895358764e-11 
0.0117558141632445 
3.993670841557246e-11 
0.008543954419893302 
5.891784201309318e-11 
0.01222466671807119 
1.288380005453257e-11 
0.001332207251616827 
-6.385539979759701e-11 
0.0010744747663435 
-2.940846887035904e-11 
-0.005067433436917838 
1.435190537625885e-11 
0.004100323600915778 
-3.359532061535834e-11 
-0.01386379279238072 
1.30219329676269e-10 
0.007875167269927236 
7.884562311931503e-11 
0.01479424184528381 
-4.640460406776306e-11 
0.009630254050075782 
-8.694585446772075e-11 
-0.008678588509537071 
-8.021348767282454e-11 
0.002384289257827385 
-3.082241782191958e-11 
-0.01089385994416853 
-1.278420388942055e-11 
-0.005982206490491317 
3.12259462743013e-12 
-0.003538883463649126 
6.071893001844574e-11 
0.01588427200965607 
-5.380892972135727e-11 
0.007292214759012053 
-5.164789753017786e-11 
-0.004826241030146282 
-4.531015225391342e-11 
-0.01231637545201372 
-6.292603620419767e-11 
0.004610110090060817 
-4.77141851253666e-11 
0.02514019790195629 
-5.075394973300174e-11 
0.01417660911701243 
-1.34998289931457e-11 
-0.0003095117787593826 
-4.383058021117231e-11 
0.008799684016572985 
1.144993645112798e-11 
0.0001967069297553424 
5.686213863258308e-11 
-0.00697576797446743 
-4.790784077892348e-11 
-0.009862523442600865 
-8.73376563733175e-11 
-0.005321062205506506 
1.232575815975157e-10 
-0.002723069387386849 
6.694106144886355e-11 
0.003630223476920771 
7.728768856098879e-11 
0.002022606943274486 
-4.221747226735295e-11 
-0.001074359944472911 
1.458235650072552e-11 
-0.000956001553064363 
6.283079653123357e-11 
0.0002588911651139442 
-1.020907580691669e-10 
-0.0009960757357977614 
-2.572301538871164e-11 
0.002388190498671281 
-7.143717529049803e-11 
0.003536421199564598 
-9.199118552667148e-11 
0.007725936468999985 
-1.081027018044427e-10 
-2.580243022213736e-05 
-3.786016224370949e-11 
0.003814639074727451 
-7.595468129123871e-11 
-0.009990784984440549 
-7.366379881930345e-11 
-0.01815652198860425 
1.232441936377309e-10 
-0.02065643433364357 
6.368776131416059e-11 
-0.005754398647565094 
6.095505666971647e-11 
0.01908875747954303 
-2.982505576392262e-11 
-0.007795167435413687 
-1.089808188860674e-10 
-0.01088777268245457 
-2.285580902498878e-11 
-0.007164844323692686 
3.609403811927891e-11 
0.005083626102725235 
1.022332777111438e-10 
0.02269747053732031 
9.18366518408681e-11 
0.0003922471179714187 
4.037268766336714e-12 
0.01639295311978287 
-2.462987910795216e-11 
0.002758569562769297 
-1.10766760471141e-11 
0.01114758579006376 
6.593257228606809e-11 
0.0048281300581202 
-7.119762860560804e-11 
0.01030979603375421 
1.489069756234663e-11 
0.01092899668485947 
9.308974120813543e-11 
0.01597849477486125 
-1.733006897689181e-11 
-0.005971895227708339 
2.524566504377158e-11 
0.01111841954600996 
-9.267761202742383e-11 
0.002620158921602071 
-5.865684085796451e-11 
-0.000973928202961672 
-2.456275061570092e-12 
-0.01390691420886307 
7.521714730550294e-12 
0.0005750786001386844 
4.656686084463884e-11 
0.0256710157582784 
1.110337068757008e-10 
0.01004261590123847 
2.158256970596005e-11 
0.007900898364560795 
-1.48186887790497e-10 
0.004824262207993518 
8.121816626849126e-12 
0.003104723982211211 
-1.599199104179496e-10 
-0.005785257327671243 
-2.857872239871682e-11 
-0.0007791244672546877 
-3.521344398454607e-11 
0.0123966876513025 
-5.271301151511588e-11 
0.009468658450612706 
-6.772007553855398e-11 
0.009462801668037138 
-1.621073227917323e-11 
0.004720832638466096 
-3.290607391875429e-12 
0.008656646556400431 
-4.427524975153152e-13 
-0.002296529048296334 
5.691679736421924e-11 
0.003228725545472298 
-2.941531950653364e-11 
-0.001266395189204835 
-4.138874676937514e-11 
0.0006308365587141759 
-1.764666888071855e-11 
0.009708581470967098 
4.879959415212944e-11 
0.01161375175914293 
-2.764784403012169e-11 
0.007076587075010273 
7.946524896559565e-12 
-0.00106184470927541 
-1.188861256763142e-11 
0.000859208380706897 
1.362034694455055e-10 
-0.002853676910504335 
9.1874001300679e-12 
-0.00415862834418763 
-8.788327191174668e-11 
0.02480519364731976 
-2.151052024945453e-11 
0.03092588800911938 
-6.667293831883008e-11 
0.01428916527834993 
6.607232342297856e-11 
0.001563482337815606 
-1.202981232131865e-10 
-7.548065123243204e-05 
7.445137622723005e-11 
-0.004179497110754399 
4.876752993204024e-12 
0.002606414720220191 
-3.291898090118861e-11 
0.006800104981637866 
-1.115039922831664e-10 
-0.007320770475350944 
5.79756479140874e-11 
-0.01063614034053613 
-1.034903977414273e-10 
0.01352293232969875 
9.165649522634097e-11 
0.02565054232447702 
7.919646338086915e-11 
0.02692733005357275 
5.570374976835418e-11 
0.01504021555553599 
-2.495892813842857e-11 
0.005369246136806717 
-2.404517970735763e-11 
0.009053461939734223 
-3.872649330668764e-12 
-0.00290788308894283 
-2.102187139900303e-11 
-0.0009510680811980673 
-1.781099307781952e-11 
-0.001841753591547537 
1.108090171637566e-11 
0.008369328490371421 
-7.61757433791194e-11 
-0.001577188288324252 
4.77054203827308e-11 
-0.01203471272103355 
-1.216794432731586e-10 
-0.01672074950431872 
7.810032451081811e-11 
-0.008800999902820586 
-1.64121590583183e-11 
0.008373638154408397 
-1.265329863822915e-10 
0.007060946080975026 
-5.046969420347778e-11 
0.01700412799488589 
-2.99960190410214e-11 
0.004130987221146422 
-6.045966652574455e-11 
-0.01338761711019068 
-3.098573482946594e-11 
-0.002927016075899726 
-1.167455939365418e-10 
0.04032884931589811 
2.98056166620837e-11 
0.000255753383199957 
-4.902217568014249e-12 
-0.01863090079084767 
-2.246164255380179e-11 
-0.0001359179375841796 
1.925751674390993e-11 
0.006416759560475706 
8.196681502994287e-11 
0.0036757593914811 
-1.342537257949351e-10 
0.01658269615051582 
5.415130001858133e-12 
-0.0005908396897965315 
3.484383570850081e-11 
0.01500638813739213 
4.55461378579871e-13 
0.010352692947054 
-3.700891393237292e-11 
0.004349760559535573 
-3.116836076363541e-11 
0.003527657341463514 
-6.15098076170672e-11 
-0.004457184665979633 
-1.146183701009273e-11 
0.003733718200482839 
1.144424376813921e-10 
0.01343539731819897 
-9.88922748078918e-11 
-0.01150947434983042 
1.168409986144441e-10 
-0.002456643632782644 
-7.761767695257202e-12 
0.005760964816865616 
1.342402228466419e-10 
0.006855951626127362 
-3.643475489526615e-11 
-0.006648940396860632 
-2.437842801271801e-12 
-0.01794420272219427 
-1.929785722781023e-10 
-0.00772824773518655 
5.205540752580675e-11 
-0.0004997419580691617 
-1.496268613717108e-11 
-0.003664010492983241 
8.552922972799193e-11 
0.01637156104705456 
1.041436917236484e-10 
0.01514534465628865 
-3.728223733996267e-11 
0.01238201147903775 
-1.013322133594688e-10 
0.01741506566111794 
-2.125607650397219e-11 
-0.01657693287845285 
7.457233888031232e-11 
-0.009196973113436285 
-2.056272335233654e-10 
-0.009107352079637046 
-2.605371114338358e-11 
-0.0005755854288419419 
9.471080812190369e-11 
0.01200789863361408 
-4.310675419657286e-11 
-0.004513938690573332 
1.245899336599473e-10 
0.01400934126615851 
6.705478093118716e-11 
0.002357471825732302 
5.326726166626575e-11 
0.002068210739560663 
5.103605856744894e-11 
-0.005771056698668004 
-2.489693186794944e-11 
0.01109309650779948 
-3.007411484943868e-11 
4.7184966464276e-05 
1.74441385123173e-10 
0.01514880145863453 
1.855712374506111e-11 
0.009272999744775941 
-1.029150090162848e-11 
0.02101331150969332 
6.118405578789642e-11 
0.002372455378982319 
1.169984402094158e-11 
0.01274342108035727 
-1.654637861421553e-10 
0.005731867327255046 
6.99047026438374e-11 
-0.009442373159025611 
8.440564964069228e-12 
-0.001384891478182542 
-6.939677149781295e-11 
0.01277305777886435 
-1.228426158018518e-10 
0.01091707605489409 
-6.942379577596798e-11 
0.02153732572060571 
-5.870868831239252e-11 
0.01540953026063133 
3.867377668760621e-11 
-0.01249272782169996 
-2.223858791524332e-11 
-0.01343954950475399 
-6.681291511994725e-11 
0.00354656761894449 
-9.289199122400981e-11 
-0.005976723550865957 
1.157568476663579e-10 
0.003531690876215592 
2.829881934068798e-11 
-0.003111762399331906 
8.45044428683675e-11 
-0.00188385104617449 
5.199185001304663e-11 
-0.006529589309711676 
-2.114363092613429e-11 
0.005574596658258646 
6.678833441929696e-11 
0.0001769294416170632 
-6.173957395906141e-12 
0.01499350609347984 
-3.006343092641369e-12 
0.01302183900693178 
-1.26405316773601e-11 
0.001785842816395098 
-4.746332137928985e-11 
-0.0005688841772044526 
-2.003540786082439e-11 
0.00794509522672231 
1.071419653353623e-10 
-0.003079362442016091 
1.350622362265148e-10 
-0.01100767941732839 
-2.312942378715255e-11 
-0.003843886977055574 
-1.114163323087355e-11 
-0.005319819353707973 
1.522539628542786e-11 
0.006903852419648014 
7.109938811517597e-11 
-0.01303927735550454 
-1.673340905376711e-11 
0.00771013373767641 
7.813501390932449e-11 
0.00278208370076558 
-2.779187351931586e-12 
-0.004732698263294384 
-1.535400027347294e-10 
0.0143859101840372 
7.614833747068348e-11 
0.001958959323552677 
4.611917948341313e-11 
-0.008873229566577876 
8.020930914345938e-11 
-0.0170716573025414 
-1.088836078066696e-10 
0.002775608260772593 
5.710780819482198e-11 
-4.074799511632358e-05 
-2.374071811817671e-12 
0.008199167199139734 
4.189096924365272e-12 
-0.003383992188259102 
7.350729284212744e-11 
1.313325675569143e-06 
-8.547723421741252e-11 
-0.006401429518837118 
1.59192475141177e-11 
-0.01910346051930808 
5.193198856918808e-11 
-0.004566055607388 
8.085560551950113e-12 
0.00287031533898295 
-2.399107209633751e-11 
-0.003585460100316421 
1.469089672917208e-12 
0.02325856887239438 
-1.254377876575483e-10 
-0.01427457302112444 
6.05575295886845e-12 
0.009814305325667579 
-4.838890381510018e-11 
-0.0001122006296899528 
3.539139622111208e-11 
0.0008566286481907461 
1.208088099128113e-10 
0.0077123938528685 
-5.903015085539678e-11 
0.002866355319937643 
-5.126315814284263e-11 
-0.02020848257347162 
-1.402566484169164e-11 
0.01522805932218549 
1.188774940406856e-11 
0.01990532691958586 
-8.57841792500266e-11 
0.01117256413982376 
1.786212078738967e-11 
-0.003368060704079968 
3.287624539157043e-11 
-0.001879129745760816 
1.438462997003347e-10 
-0.002577514898125326 
-2.398001775443073e-11 
-0.0008159506420113195 
2.478157334489971e-11 
-0.0213771227270923 
-1.352917533451868e-11 
0.005586848366914137 
-6.739224582664431e-11 
-0.004478754765442143 
-8.0355563505753e-12 
0.006281468458375162 
-4.109260745089499e-12 
0.01806575805539325 
-3.023738834544661e-12 
-0.01995434981749423 
3.529334589352927e-11 
0.01353057715250566 
5.545709700620132e-13 
0.003813150122783295 
5.501269634552367e-11 
-0.007810626452306155 
6.683041834450267e-11 
-0.0004391182009875603 
5.388462620140276e-12 
-0.02618561644591261 
-1.796055338068931e-11 
0.02387698831700238 
1.298561983688724e-10 
0.007483631268590991 
-4.296596259702896e-12 
-0.03404361294262891 
-1.062026947912502e-10 
-0.003601830205702879 
-7.07592825746651e-12 
-0.008322041871793305 
5.230607684043053e-11 
-0.01128240501993624 
-2.77028749855459e-11 
0.003549984510014867 
1.068880014326888e-10 
-0.001145116525435337 
-1.794873853288336e-11 
-0.00878896323339997 
-1.460769551791007e-10 
0.02095309955370546 
5.425210206703213e-11 
0.01282668435281764 
-2.765033326291669e-11 
0.006411451164778738 
1.150630531896793e-11 
-0.01399739390311761 
-2.825953469738545e-11 
-0.005569461751946549 
-1.912795950394391e-10 
-0.002906301566819928 
-5.453802100260676e-11 
-0.001466361047076561 
5.574384940292768e-11 
-0.01704099715357306 
-4.090292023080411e-11 
0.02305985611016101 
-2.548195710691795e-11 
0.00507157671766535 
-5.435863815394443e-12 
0.004120404790629067 
-3.937255577981998e-11 
-0.006611931811199307 
7.703459221956944e-11 
-0.002084644005580004 
3.943454885145272e-11 
-0.01245259657498953 
-6.576432448403774e-11 
-0.004664900639007279 
6.828683579876099e-11 
-0.002948278799406102 
1.102288467668186e-10 
-0.0137101099406624 
-2.867601468184207e-11 
0.009477821996737164 
3.995145079591585e-11 
0.003092332976754379 
3.379470555442987e-11 
0.005560726570065699 
1.033890835553648e-11 
0.01147441130636958 
-7.847675404062582e-11 
0.0005476419010118867 
-1.719680818372114e-11 
0.009499424160526779 
-1.2858233510104e-11 
-0.002672067049460188 
-7.936357353017863e-12 
0.006682641043965432 
7.064492158054364e-11 
0.02781565617413268 
4.439970737497193e-11 
0.000642428294882524 
-5.538826778959089e-11 
-0.01659592212231166 
-4.855315183120167e-11 
-0.002154264614893053 
-1.258683929941905e-12 
0.001821036985524156 
-7.149884853970388e-11 
-0.005248164970666083 
1.012111935660224e-10 
0.004310590853518355 
1.459903807841755e-11 
-0.007698238626140393 
-1.924177324845219e-12 
-0.009999271465589406 
1.138752162293939e-11 
0.006067948187114717 
1.554525259484069e-12 
0.01287699292921765 
-1.205493634921935e-11 
-0.0006399874843065127 
8.206013753884991e-11 
0.02189793022079566 
-2.028290799742615e-11 
0.007303909391870763 
7.246609064139334e-11 
-0.001829140700071852 
-2.249960105617884e-11 
-0.0119406716415973 
-3.508837598694574e-11 
0.007154181821066003 
1.84235307438204e-11 
0.009393370347267296 
4.65691629015487e-11 
0.009037449124802272 
1.029173044922609e-11 
-0.004731427887619199 
5.723966426038389e-11 
0.02463722637963613 
5.661405833537721e-11 
-0.0007024238100670037 
-7.036872501937475e-11 
0.002207742911241018 
1.22492754754267e-11 
-0.004543099213850056 
-1.144581047748072e-10 
0.01855019207565402 
-1.226626532070397e-10 
0.00188375946117409 
1.264342996124927e-10 
0.02382267308148081 
4.746437777913449e-12 
-0.00528813256988429 
-2.33380921120595e-11 
0.009162953532073649 
6.694651001299331e-11 
0.002099562949116275 
3.341326155657265e-11 
-0.004623159098358537 
7.392544165498227e-11 
-0.008415253855273865 
9.505706331868985e-11 
-0.01341187333641858 
4.879150809643105e-11 
0.003106529554308271 
-3.394926959967276e-11 
0.00988261070657334 
9.116047444291523e-11 
0.002024438544489813 
-1.193929630496942e-10 
0.02072890850271463 
7.98138573560371e-12 
-0.002118960379948152 
1.21752211516651e-10 
-0.01882239315170854 
9.209632660026378e-12 
-0.00372359002961569 
-1.387268773970355e-10 
-0.007643025901183619 
5.052898614464197e-11 
0.02320949416832411 
-1.877061631805847e-11 
-0.01985536813462161 
1.629975071240197e-10 
-0.004372597900466766 
1.184857129894722e-10 
-0.002678521669840226 
-4.659227467455023e-11 
-0.009359144779246886 
-5.287160335252078e-11 
-0.01680939794574628 
-3.814368435724025e-11 
-0.01238771918441948 
4.525213171077872e-11 
-0.003341455218283523 
2.84497995784396e-11 
-0.005065090821188108 
-9.61954491009825e-11 
-0.003570547619258245 
3.832966130999199e-12 
-0.005882910315770335 
-2.272968301633182e-11 
0.01908558315076152 
-3.851922040725909e-11 
-0.007363668227742206 
5.685734782155888e-11 
-0.006982497019676164 
9.451472553725675e-12 
-0.006528777940070063 
5.248969016551005e-11 
0.02040048299217876 
4.836937967359246e-11 
0.003265325526218875 
5.240817359283076e-11 
-0.01052073411693122 
-2.624106451295138e-11 
-0.00915419282476391 
7.793508996070939e-11 
-0.008818113295059557 
-9.888022625098317e-11 
0.01824733576745015 
1.020773476652429e-10 
-0.02300267121793784 
-4.714887303286038e-12 
-0.005913071655625479 
-8.649024195649078e-12 
0.01497157110345249 
1.14830247138845e-10 
0.007257638147894334 
-1.913657730713004e-11 
-0.007403521165172848 
4.742535509968976e-11 
-0.006700870551259789 
-1.129238835802441e-10 
0.01587193990498951 
-1.473490864347189e-10 
0.006343488989088084 
-1.567874081078957e-10 
0.008772229507288945 
8.244382811185014e-11 
0.0009992271468582804 
-1.326038813697447e-10 
0.0127553646286599 
-3.120137030090404e-11 
0.01563742040299522 
-3.247879063367497e-11 
0.001022066777300117 
5.302198169913189e-11 
0.007983341911602066 
3.126510357751346e-11 
0.001859860185624256 
-9.859553403195096e-11 
-0.004404639097537306 
4.59542488215124e-11 
-0.003858445151420727 
3.861881147893334e-11 
0.002583827879093342 
-9.501796317346765e-11 
0.007471332312416253 
-4.24887493077165e-11 
0.01485426215821221 
-8.428404770450242e-11 
0.005078140271187841 
-1.266581294879372e-10 
0.0009281324939907995 
-2.12525360310478e-11 
0.002525602445664845 
5.949416416827973e-12 
-0.0139465685463755 
6.233425324898939e-11 
-0.0147955163234365 
-6.810620206033091e-11 
0.004580377722559508 
9.674140980074607e-12 
0.01895280825336935 
2.100004592762907e-12 
0.02118457290744405 
1.607575883378414e-11 
0.01267482195061117 
8.244249063677814e-11 
0.0006318356803902082 
-7.581522010307521e-11 
0.01335702387467597 
1.015226682887704e-11 
0.0006807426730731161 
-1.991263872975544e-10 
0.002129379808919198 
9.857560393796179e-14 
-0.003334156219740465 
5.614536778532971e-11 
-0.005180687461751265 
7.995442649643097e-11 
-0.002633780209441259 
3.978730282775199e-11 
0.003927817321469086 
1.204263036835537e-10 
-0.00694672275680976 
-4.746757712241527e-11 
0.02287416018910834 
-6.791101085803095e-11 
-0.006390571597826158 
-5.270030105012373e-11 
-0.00844749529846929 
-4.246477927968871e-12 
0.002028007602562296 
1.611431911502062e-11 
-0.007339631490926782 
8.328407262083136e-11 
0.01383339326133679 
-4.109896589395927e-12 
-0.01784817161293909 
-1.450391997164815e-10 
-0.02237017670881948 
1.415503934871573e-10 
-0.005783670294326616 
3.246703743108208e-11 
0.01300658203811584 
-1.002946782311929e-10 
-0.01367802605176509 
-6.622205954147606e-11 
-0.002998252619661908 
4.454605902638772e-11 
-0.007211033744757464 
-1.050614569522126e-10 
-0.0005788718725313789 
-4.75163695384088e-11 
-0.01612750572758812 
1.739590147698708e-11 
-0.01317360543713765 
8.066383087384192e-11 
0.01119850313553313 
1.113512224747845e-10 
0.02032233577068538 
-1.814943259002562e-11 
-0.0278983394049993 
2.438626185978684e-11 
-0.02291247488128504 
9.75974250925924e-11 
-0.004393609568329789 
-5.415740217909821e-11 
-0.0162969978876219 
-9.027424242695604e-11 
-0.0224847988660248 
-5.014212011979733e-11 
-0.02712957055909118 
4.701797287691929e-11 
0.009251415311600784 
4.500873881972058e-13 
0.03372496245262878 
1.631521474783655e-10 
-0.009108922148612045 
-2.704567390581968e-11 
0.00300779942057938 
-2.083946636867762e-11 
0.00392808395952311 
1.054751018083772e-11 
0.0358424655029921 
-2.108601794515197e-11 
-0.02303000516139339 
5.310632146047543e-11 
-0.03845211021664536 
5.67798839900348e-11 
-0.0008529669220099118 
7.468892868316159e-12 
0.01219030555789017 
2.765773328496881e-11 
0.005495620661582377 
2.866121974154186e-11 
0.005452869087837176 
2.985078461791977e-11 
0.01139585771811708 
-3.64478236754995e-11 
0.03027539413540365 
-2.757439553582757e-11 
-0.001051981517243232 
-1.695659450302173e-11 
-0.01538086977407805 
-1.487739928946676e-11 
0.0001984053960397531 
-1.013657256666802e-10 
0.006827659285735426 
7.753941205661478e-11 
-0.005135248976299761 
-5.997255833262738e-11 
-0.01056114796544724 
1.017005289351045e-10 
0.009197373295043531 
-7.964523539707974e-11 
0.01006734023273544 
7.108203142771936e-11 
-0.008025102822901205 
1.094040570394047e-11 
-0.01016118484456114 
-6.590526400697401e-11 
0.0072172901400042 
6.615788416731784e-11 
0.004014157246744638 
5.346009785942383e-11 
-0.0007969342881599456 
-4.816507017086171e-11 
-0.009223061010808453 
5.520923178975105e-11 
0.009854942893237476 
6.465709330131311e-11 
0.01243616544369183 
-2.450832936964566e-11 
0.001698574611853064 
-5.424056633472048e-11 
-0.008749708020919848 
-2.494772087938036e-11 
-0.005862203682558704 
1.10940632626897e-10 
0.004855712463743276 
7.703557691883701e-11 
0.006918911024041031 
3.05614148606132e-11 
-0.001540357377457637 
-1.62626034131999e-10 
-0.008319971393656101 
-2.241688154757792e-11 
-0.0112053193578079 
-4.631502667724969e-11 
0.01345812588952075 
-9.236318343907402e-11 
0.007583839990747046 
2.2005163472084e-11 
0.01652000702451461 
-1.62944170937102e-11 
0.01773643219072657 
-1.003251161748345e-10 
-0.01111637105277482 
6.100987477245278e-11 
-0.0159959787360646 
2.993973801252395e-11 
-0.02856646712827967 
6.422772650296495e-11 
0.001886651957387472 
-1.829029719579164e-10 
-0.008846572687129246 
5.418724938026136e-11 
-0.0001884295906699701 
2.873712726797886e-11 
-0.0003113019831492809 
-3.656319615836536e-11 
0.00787904291750135 
6.327002566009138e-11 
-0.02566790750032401 
-3.583764096260669e-11 
-0.02401769281496411 
-3.613347864096577e-11 
-0.02254181657873391 
-4.666893347660045e-11 
0.003747059861832591 
-3.689524883117499e-11 
-0.01918528075252716 
1.431341909144383e-10 
-0.002627604429807633 
1.148253406522044e-10 
-0.00496207151776545 
-1.287090117940258e-10 
0.01269854627277925 
-1.537183452064985e-10 
-0.03555590061198964 
3.36496809399659e-13 
-0.01273790029184843 
-1.860474923813093e-11 
-0.01093458991785825 
-2.806685817268181e-11 
0.02299282142579637 
7.5230627886457e-11 
-0.01305044366385296 
6.809858406027264e-11 
-0.003329416810268812 
2.568149071197458e-11 
0.002405907861975871 
-1.335765552883424e-10 
0.02061380850667122 
-1.28929281093381e-11 
-0.01440780486572007 
-1.04544771703906e-10 
-0.0001702215068248114 
7.405175374423169e-12 
-0.02008827022220714 
2.807284468949814e-11 
0.02145827482510206 
6.299455706927925e-11 
-0.01369256544844237 
-5.894125613004733e-11 
-0.004103810712739467 
1.252910187003642e-10 
0.01144039159725785 
-9.635298614751913e-11 
0.002383719379827604 
-1.407447655216755e-11 
0.01104126863072926 
-3.579158516622531e-11 
0.01298042531586946 
-1.062389455463347e-11 
0.001749660642709245 
1.158185643848418e-10 
0.01576356679253901 
1.017808707166564e-10 
0.01083124506223587 
-7.72209489657605e-11 
-0.00454475252338821 
-3.999147575701802e-11 
-0.01027665004480371 
1.373428953675615e-11 
-0.005579087392807516 
-1.567147880281081e-10 
-0.02153687829661633 
-1.133245928386893e-11 
-0.008023893395978194 
-1.193218553213188e-10 
0.006615702228112189 
1.684954684387877e-11 
0.001503180783816539 
5.412167583174145e-11 
-0.007013831831830164 
6.468102382720335e-11 
-0.007878399737017398 
-3.352471955169554e-11 
-0.00579150252242736 
-7.979139320593481e-11 
0.007336226189569625 
1.045314587991652e-10 
0.006486994797561082 
-2.719964902915405e-12 
9.920003048086819e-05 
3.368273882861748e-11 
0.003431907146987588 
-3.134072804011858e-11 
0.01973235050317061 
-3.175156743165926e-11 
-0.01489643944463809 
-3.47278051029565e-11 
-0.01410964711993445 
-1.897544787930423e-11 
0.003767510191431214 
-5.231514716710255e-11 
0.00438524279918822 
-1.702414546738864e-11 
0.01299940347254207 
-5.048779386560357e-11 
-0.003647977442212368 
-6.183856930274143e-11 
-0.00627784109541413 
9.534628367929114e-12 
-0.02289575575988794 
5.227642446157558e-11 
-0.0004716740689710954 
-1.368824503726418e-10 
1.897512464964524e-05 
1.164216638207402e-10 
-0.001622229876063602 
1.355342676404835e-10 
0.02494977008046642 
7.548534796429816e-12 
-0.01114983034256421 
6.448249996615817e-11 
-0.004532881897757302 
-7.063376428983043e-11 
-0.007006983861649494 
-2.549993450528533e-11 
-0.005830590375028824 
-6.452606158324707e-11 
-0.01720849614165167 
-3.476153451585303e-11 
-0.001443234634900297 
-2.574696672711163e-11 
0.02296055393808644 
-8.539498101270127e-11 
-0.003696881869035791 
-1.363444941272356e-11 
-0.01591163919167046 
-1.240569442794882e-10 
0.009227797989374235 
-8.116558417297006e-11 
0.0006885492287170007 
-4.727849412411821e-11 
0.01328446097142384 
-1.547825861321531e-11 
-0.00185829337323268 
-9.832384325870772e-11 
0.008145918714894613 
-5.477077649303187e-12 
-0.003191065872697302 
3.742091371852671e-12 
-0.004038448778575643 
5.153733857868279e-11 
-0.008611801488388134 
-7.343495788931883e-11 
-0.001060222426716153 
-1.757536492565922e-11 
0.005390183270867002 
-6.378412945433217e-11 
-0.005471734806827181 
-6.4571296934031e-11 
-0.007282166263325809 
1.385264885644258e-11 
0.003166379772034203 
6.518500554584447e-11 
0.02605967335983669 
1.369351701025188e-11 
0.0145079519624899 
-3.234384349120105e-11 
-0.01613197940894152 
6.528099225401916e-12 
-0.0001886739250268087 
-8.419402119732581e-11 
-0.009510903353911753 
9.224601649663554e-12 
-0.008389063365896211 
3.280920521627879e-11 
-0.01807921721914019 
2.590743930845725e-11 
0.01147237498433864 
5.31735135725714e-11 
0.02966224133910197 
-1.132531498331178e-10 
-0.004082541233321594 
6.090274233996952e-11 
-0.005436804847044718 
6.132233101721348e-11 
-0.004312678594033888 
1.42183933975747e-11 
0.0007676263952778022 
-4.877083816875106e-11 
-0.001154542942396961 
1.620615051870935e-10 
-0.005103606080664793 
7.235704894823246e-11 
0.002369325830172415 
-1.335544965900557e-10 
0.01070760285703894 
-1.915216275245393e-11 
0.003733346941652146 
-6.292603745675086e-12 
0.003534476664290434 
2.059421418604632e-11 
-0.007910120013530308 
-5.917124106300416e-11 
0.005088491899491973 
3.6465880148082e-12 
0.01108074712715496 
-2.581066083604016e-11 
-0.009523359602565546 
2.531132124606249e-11 
-0.02057418929712995 
-8.318695506812819e-11 
0.0003621614701940331 
-1.403985171276827e-11 
-0.00222154637811774 
-9.49839020127346e-11 
0.02014144159414098 
7.71886970604478e-11 
-0.0246498007931474 
-5.4240572645577e-11 
0.001909917203125431 
1.003516448492902e-10 
0.01470617600771943 
4.571290739069066e-11 
-0.01245167640670098 
1.283496464200191e-10 
0.007104760849681774 
-8.362054856448657e-11 
-0.006150069731030101 
-1.906299429072833e-11 
0.002725362900505343 
-7.487598142688598e-11 
0.007647829167351862 
-9.351550940446037e-11 
0.006384261169458483 
2.262472767547874e-11 
0.000534283651930019 
-3.848768106596588e-11 
0.002933841775922193 
5.579961631632506e-11 
-0.002061637430061653 
2.185911520935681e-11 
-0.002100055104345197 
-1.385423493545231e-10 
-0.002340236884949791 
9.845958769528006e-11 
0.009200928634851906 
6.753025977762081e-11 
-2.727768951507904e-06 
9.916617643337027e-12 
-0.00107307904828344 
-1.376222695141013e-10 
0.01987717490282241 
-5.419969855909943e-12 
0.01271923585045615 
-6.205995985985687e-11 
-0.01295330927982723 
7.98449528303133e-12 
-0.0004352326176117907 
-9.048791627435389e-11 
0.006612606995281421 
1.472067747662325e-10 
0.008360121498438249 
1.05579828185582e-10 
-0.0173709084775055 
8.642520514825233e-11 
0.008672763349376392 
4.03203342669702e-11 
0.01380377319198252 
-1.318596026228642e-10 
0.006202705147297132 
-3.814082649200622e-11 
-0.009799994357781288 
-4.914140944711818e-11 
-0.006469898420164301 
-9.420784514639358e-11 
-0.002372976348593645 
-8.503157960874125e-11 
0.01017581051904066 
-1.906106706568412e-11 
-0.01883913353987595 
6.662116816003589e-11 
-0.00986373047080279 
1.417765332848928e-10 
0.005445334999772819 
-3.50194389385293e-11 
0.008974759007642965 
-5.786544815020417e-12 
-0.01646196556632236 
-4.333159622622743e-11 
-0.02473000657831091 
4.278643247617612e-11 
0.01021475271437158 
6.153523541963349e-11 
-0.002500841191931661 
-6.328064593980874e-11 
-0.004153653953530598 
-4.046640238851897e-11 
0.01872980110264963 
1.661772701827429e-11 
0.0170368576635512 
2.987060239031428e-11 
0.01569965286237573 
-2.32790687674083e-11 
-0.009222042517315928 
-6.880482005663301e-11 
0.002185325262380615 
4.618089632653217e-11 
0.01139191511110331 
8.716351239235711e-11 
0.006069567114180202 
-7.971753415839887e-11 
0.01708668074103219 
-6.958158846610442e-11 
0.01555411104069894 
6.643602510833137e-12 
-0.03437795648502459 
-5.900105583364706e-12 
0.01057806684131668 
-6.856108864241683e-11 
0.02006902913095699 
4.972983509104386e-11 
0.009567468930298825 
8.518135331224839e-11 
0.02883148147014877 
7.340112839652214e-11 
0.004493785017931369 
1.809923992623876e-11 
-0.002373756330447895 
1.599306431271367e-11 
-0.004464402587751414 
6.315434941586711e-12 
0.01464943899990396 
6.11455320341543e-11 
0.02163235738888942 
6.507276179522271e-11 
-0.01171740952392945 
3.040486434868629e-12 
0.003827496359610794 
3.003393082030321e-11 
0.009855239762474663 
7.139527867345139e-11 
0.01603486871945455 
-4.495183482667808e-11 
0.01714806552262436 
8.590365167697517e-12 
-0.004115063428714096 
3.931741679214531e-11 
0.01617517764910357 
8.438211070950567e-11 
0.01750048756237089 
1.557697918172069e-11 
-0.0140159860613844 
7.759446730150162e-11 
-0.01344110065903384 
8.453231842961725e-11 
0.004721036456480743 
7.737079807693243e-11 
0.01656389864743948 
1.817499522119095e-11 
0.006352487254309727 
-5.22351157341824e-11 
0.01421867741151392 
-4.762593091932701e-11 
0.01533554565830006 
-4.850470331250068e-11 
0.005420902450342841 
-2.423365186087852e-11 
-0.0004047207478761515 
1.854425854361627e-11 
0.003264176042679443 
-5.161685125680804e-11 
0.01086916153227794 
-8.092788516597861e-11 
0.02526984491601747 
-8.200546342707924e-11 
0.008447707488216683 
1.206708963874946e-10 
0.0004452062181068509 
5.591174299673876e-11 
0.009697062445862211 
-1.492529826421381e-11 
0.004031677098533853 
-1.78953226161535e-11 
0.01008356191305938 
2.616359123784268e-11 
0.005517904379201829 
-5.471930340185551e-12 
0.01282131824092061 
4.244024695987832e-11 
-0.003128303162343545 
4.488158779341724e-11 
0.001546286381377847 
-6.168899171877912e-11 
0.001925458678758299 
4.878414181536071e-11 
-0.001765702088869842 
-3.89200129796026e-12 
0.004669559271723031 
1.391532031014248e-10 
0.005715725569480046 
-1.15181668239179e-10 
0.02766118426617212 
-3.558515580524248e-11 
-0.008390990588035831 
3.101686599469357e-11 
0.01091573284203033 
7.131380706043832e-11 
0.00344770864765479 
3.168666507263893e-11 
0.002900925842131088 
1.040736113179945e-10 
0.003023133897539802 
5.495146146627578e-11 
-0.009448605962687658 
7.772935096666367e-11 
0.005608603660933953 
5.554225146847396e-12 
0.02980367379909848 
7.291842700449499e-11 
-0.00612788092194724 
3.085452309917949e-11 
0.009103830712337996 
-3.039418877334394e-11 
-0.01007812410532405 
-7.213369918855091e-11 
-0.01633703323649344 
-9.611366547148066e-11 
0.01219679468361432 
3.702590619225384e-11 
0.00419628284709361 
-2.318031470816777e-11 
-0.001248576668235238 
7.93540627855131e-12 
0.008411606583092103 
-5.082209655360498e-11 
-0.01258204074869918 
-6.007353294507169e-11 
0.001600283845960719 
7.247731692346471e-11 
-0.007188599630911567 
-4.237192921161455e-11 
0.00871383005572939 
4.937902561241773e-11 
0.006967549068673755 
-1.982540972079771e-12 
-0.01414899143888323 
-4.406795918233204e-11 
-0.01044327823389673 
6.887521175511287e-11 
0.0006502524711514204 
7.300601320210263e-11 
-0.004979816122661271 
-4.406110061401085e-11 
0.01674041404894215 
-1.86575078810541e-11 
0.007681101679685961 
-5.168286159069633e-11 
-0.002179326801418472 
3.74903311376146e-11 
-0.01073070374678505 
-1.336399831334767e-11 
-0.005591649497787091 
-4.101729193029435e-11 
0.008692120823104095 
8.696823246331722e-11 
0.01518004671955632 
-6.950104405539707e-12 
0.01436902407714703 
-4.112154084562804e-11 
0.006877286407894888 
1.686247125138508e-11 
-0.02241880164390942 
5.338780705515663e-12 
-0.01707683395052565 
5.180609702798341e-11 
0.003308054785013337 
1.045622251348193e-11 
-0.005419263425201783 
-6.309793430687122e-11 
0.004638487207899648 
2.345084225064559e-11 
0.01671879990364556 
-9.788583744902146e-11 
-0.006457605309377366 
-7.893103659867176e-11 
0.009827374718894246 
2.522920987414456e-11 
-0.003907040149357058 
-9.050396910582486e-11 
-0.003944573100288954 
1.005166986862368e-10 
0.004910945223412619 
4.351088794639799e-11 
-0.0176880459295223 
-1.740184031235975e-11 
0.01945523749891419 
-8.316834524192126e-11 
0.02826431078841236 
-5.768943092497852e-11 
-0.005985987563822716 
1.791578304947701e-11 
-0.001347634036667645 
0.003381089720292762 
0.004442763827011731 
-0.002552859863086273 
0.003160518867815099 
0.004483240945440169 
-0.001578486027856499 
0.002566958394985996 
0.002817593855581458 
-0.001403831760084144 
0.001526855428896022 
0.00179748410184892 
-0.001306966517220883 
0.001757781062731884 
0.002177897149050452 
-0.001784769335994378 
0.001599183170222051 
0.001876008174413139 
-0.003036128786217713 
0.0005143735054171864 
0.0002739266469568894 
-0.002150471216435352 
0.0007690700825198364 
-0.0008455733092874647 
-0.004882034870085154 
0.0008893674393186046 
0.002326140503464512 
-0.00488280552950424 
0.002853094361203247 
0.003988875179288765 
-0.006482012371882714 
-0.002979090961436003 
-0.003094298285796658 
-0.005899688556653691 
-0.00441795220623238 
-0.004036167753458026 
-0.004909243709147948 
-0.004739708391083194 
-0.0057562709468596 
-0.006208813601229994 
-0.003218394961922242 
-0.004954805317404085 
-0.007456423049771203 
-0.005574183680645246 
-0.009049101900470768 
-0.006526452060268253 
-0.005270931256415944 
-0.009886048593750769 
-0.006608196140478359 
-0.0002889124200204783 
0.001149827489325824 
-0.006214600362007271 
0.002872337458211444 
0.004562425756207027 
-0.006220767742874397 
0.0005877118369272923 
0.001925001481184286 
-0.002834202409201343 
-0.0009551982133586147 
0.0005742923995345146 
-0.003725900146640645 
-0.005566903260584955 
-0.004920431552025884 
-0.01054620325579453 
-0.008130889144167323 
-0.008298009102786108 
-0.007868322169844753 
-0.005746360038586886 
-0.008315440630403997 
-0.00692415021194871 
-0.005820264823908949 
-0.01018504940252121 
-0.008236334035691656 
-0.00215795260679256 
-0.0007822593316544032 
-0.007602023865186058 
-4.002248150288327e-06 
0.0004535560285686412 
-0.00634294041141898 
-0.0002732014013296027 
-0.0005142114645642375 
-0.004836844065782163 
-0.003780094701487385 
-0.003489656313386629 
-0.003322806077028033 
-0.004267526892807945 
-0.00347826410754932 
-0.01168525134182999 
-0.01045058357358589 
-0.01020744970946521 
-0.009521462051068887 
-0.006975201944304378 
-0.008519451756677291 
-0.0058873614573654 
-0.005018951480102193 
-0.009096548362999212 
-0.007774977189518716 
-0.002591050498472242 
-0.002017390680590062 
-0.007691161078637711 
0.0005410795167756486 
0.001043989305733362 
-0.007799365856764998 
-0.001375939918576175 
-0.000920977203439008 
-0.006316694678891292 
-0.005325198934668892 
-0.005569512922479887 
-0.005659325228831551 
-0.007073823044515469 
-0.007021122708672095 
-0.01046995101647905 
-0.009192835209767498 
-0.009437875989083369 
-0.01157922316165669 
-0.008791228435541427 
-0.009662018393780274 
-0.006330708831075579 
-0.005677609026574913 
-0.009306323779213161 
-0.005944443278611973 
-0.0005667101428857594 
-0.0006703577989359936 
-0.006076998414855036 
0.0007869131180665774 
0.0009455029520822012 
-0.008075752128047658 
-0.002162406274104685 
-0.002278941929944412 
-0.005654083122828576 
-0.004194839721128546 
-0.004539405595232307 
-0.002346059267998551 
-0.003646811820689738 
-0.003945191841135965 
-0.009838992051844025 
-0.006780327843104545 
-0.006735686070593733 
-0.01312314689190634 
-0.009194099102779456 
-0.01034143762211306 
-0.00878639079649793 
-0.007870218016652438 
-0.0110650225031898 
-0.005411123363971606 
0.0002198811711806176 
0.0007268226880109351 
-0.006824109601080375 
8.65744899126128e-05 
0.0004948379103557655 
-0.007371685037277761 
-0.002378570818109061 
-0.002406505138011303 
-0.005758235162564648 
-0.003635869302549606 
-0.002529173640580143 
-0.001846196115451051 
-0.001488917955311729 
-0.0007134914285518423 
-0.00508629759234489 
-0.0008362022010322021 
-0.002165015969660179 
-0.009726084762602134 
-0.006614207457265086 
-0.008301060371699375 
-0.009579662744828767 
-0.007986342329300091 
-0.01091774402337 
-0.001006076094132154 
0.003342366334514897 
0.002875278321482771 
-0.0009413379718829937 
0.003712856447339401 
0.002516996799575794 
-0.002279596150240715 
0.001306241308779917 
-5.473875362506458e-06 
-0.003104650407881055 
-0.001278041309852985 
-0.003030958683413006 
-0.002468382962700725 
0.0001206002320898914 
-0.0009461550388481695 
-0.003791416613212256 
-0.0003706457661400782 
-0.001817048050955301 
-0.005491371717806243 
-0.003043344088232927 
-0.003223357218032683 
-0.004382244941933768 
-0.00351057856617201 
-0.005329535757980038 
