solver_type L2R_L2LOSS_SVC_DUAL
nr_class 10
label 1 2 3 4 5 6 7 8 9 10
nr_feature 2752
bias -1
w
-0.01058447293019272 0.005628770133047266 0.008672786071457985 0.003803553490770201 -0.004552733178672577 -0.002234326616594112 -0.0009839790364097147 -0.006004634770146279 -0.01566133325608837 -0.01907607212080704 
3.780021108444297e-11 -6.183841539688706e-11 2.03221985317814e-10 -3.115232368864028e-11 -1.001503888499343e-10 -6.712153703122926e-12 1.174962162810447e-10 -8.723692963478817e-12 -3.190863417466922e-11 -4.958107603365422e-11 
-0.004640966938040749 -0.0118707145747103 -0.00423925369724401 0.005481330641486236 -0.002312438292718972 0.0051807343770183 -0.01150861345117303 -0.001412579790877097 0.002411902972410777 0.02006983343793361 
3.386577445017893e-10 -2.15991817528419e-10 3.542854828547462e-11 -5.080555839996292e-12 1.833289374749818e-12 -5.713932518169192e-11 -1.779780611060863e-10 -4.338171103027362e-11 5.616859582293948e-11 -2.921803046199742e-11 
-0.01349715628947223 -0.00293192228155998 0.003661328059478803 0.01084250522033192 -0.0004976089012814247 0.003989310433102257 -0.01658796824392662 0.004969682080911622 0.004669587247918469 -0.003504572130892038 
-8.947416606133653e-11 2.502217696103171e-11 -2.718310286503344e-11 -2.910566592791846e-11 -5.731673618302403e-11 -3.735848369241905e-11 -1.31632469516552e-10 6.196050246505899e-11 3.860573807228884e-11 4.461775046228892e-11 
-0.009825066349148042 0.009606015981864821 -0.009637546531351605 0.009111768881580693 0.004339317023205651 0.0008361303093238398 -0.0264399849432538 0.01036501845169534 -0.0003803503324311394 0.01258103585423678 
5.109460626232889e-11 1.358428632314901e-10 -1.890364315660338e-10 7.250438783249794e-12 -1.847696188349674e-10 -5.406302060147546e-11 7.750538998576018e-11 -3.767034569844107e-11 -4.231141406114107e-11 1.145682110318045e-10 
0.003353998984463893 0.01669046167073799 0.003335248400656783 -0.006027153390802945 -0.005939565580262293 0.01072639458239704 -0.03499512374437205 -0.002048755166170296 0.0113588348143931 -0.004407616121234462 
1.324473654031492e-11 -1.503570325270975e-10 2.322732363803245e-11 1.560494342759044e-11 -1.394634817084026e-10 -2.55876709258119e-11 -4.366957111384482e-11 1.128929768413632e-10 -5.308870676193613e-11 7.18445188778503e-11 
0.008539273869957923 -0.0007199570505077093 0.01577851335693847 0.008108248769135929 -0.005879526885636408 -0.00164747321359933 -0.0130791269830614 -0.005609796126356146 -0.003711768462037353 -0.001449235659204934 
-4.96560718863007e-11 9.790008568802812e-11 5.783523093766762e-12 -7.420490427770758e-11 9.284866870950481e-11 3.135932477495411e-11 6.868444908446346e-11 -1.025027323675182e-10 2.067388034611216e-11 2.498564819508604e-11 
0.005784074694777962 -0.001096062877647827 0.0008353332627864399 0.004949469059088589 -0.00206106305392108 -0.003582979400811533 -0.006647753023085904 0.001303418226147298 0.0002864850146438406 0.006500331858013265 
-7.149086152033335e-11 8.741826287335514e-11 1.867815351287596e-10 -3.075915880382913e-11 2.766223288169572e-11 2.351085659415908e-12 5.747421898844606e-12 4.886041271898273e-11 -2.936838823733341e-11 1.040463799532594e-10 
-0.006784819562439505 -0.00648343870148623 -0.005696489217819295 0.001204803167694837 -0.0002402070207933572 0.004113737017067696 0.0006276615358546575 0.007026231852877042 -0.01001604064163565 0.0018392632568196 
-1.111490773883877e-11 1.030106815033557e-10 -5.700016420720999e-11 -1.368493094919872e-11 -7.498261447994898e-11 1.364127065470371e-11 -1.04664186131915e-10 1.124918018395243e-11 7.049423620792769e-11 -5.545879358681062e-11 
0.007521716414970726 0.02945116216167682 0.01081500096184628 0.004667371206127939 -0.006779084909525192 0.0007646633615761617 -0.01706487703999442 -0.007365422520754705 -0.0009574525333036055 0.01310997062162195 
1.412600541500964e-10 -6.543508489710301e-11 4.630665824346843e-11 1.320185249707339e-11 1.230828294354653e-10 -3.202020283000955e-11 4.275026947722434e-11 -1.814302448999886e-11 1.426211162987593e-10 3.247691044986866e-11 
0.01747074331479274 -0.00726761908738335 0.004364683933757534 0.001873081662240827 -0.002603619649060171 0.01022563793185302 -0.01837622505185315 -0.00457431602069642 -0.00461343075318348 -0.01288264630876806 
-1.068721563307769e-10 -1.83496379336854e-10 1.085236327658481e-10 -2.872257766923498e-11 -3.466878388702574e-11 -6.508415252025931e-11 -1.241832340481661e-10 5.590539248511195e-11 -1.438164956914127e-10 1.723976735223507e-10 
-0.007760605373688803 -0.00609093819446954 0.02002242064753714 0.004641473648102519 -0.003033471777379268 0.006552761002882381 -0.009551728007992425 -0.001457161928315679 0.01031681543752195 -0.01079692289930685 
2.08914242410087e-11 -5.479027872477004e-12 -1.018437424863615e-10 -1.621976730071067e-11 -2.385227728386644e-11 4.878542510001015e-11 4.240664628238304e-11 2.596890915826212e-11 4.998628385198017e-11 -9.823338630040144e-11 
0.0004545376958373663 -0.005929519433877 0.01302652370166631 0.002394281476525349 -0.003572743760562009 0.01056516821147525 0.003543116814351093 0.003112779491420269 0.005080555789531636 -0.001505629829873093 
-1.126831533337683e-10 -1.537893178190396e-10 3.481895929119692e-11 3.365634418834614e-11 4.482035362091083e-11 5.516863011896396e-11 -6.073899619743579e-11 1.213039037136127e-11 1.421992681159393e-10 -1.15918733036671e-11 
0.00571963889035207 0.02416386268671663 0.01535286365485247 -0.0003314263969478668 -0.01796819801937162 0.001776238850165683 0.01318341719376107 -0.0006793544739936041 -0.01463322628400699 0.01483850955387004 
-1.107199092654428e-10 6.625660062765091e-11 8.374022679115638e-11 9.666977899473342e-12 1.715696942746211e-10 -2.879364968682652e-11 -9.746184726137464e-11 2.669682287801126e-11 -1.82178869889235e-10 8.830529549035367e-11 
0.01767323488321753 0.01790857277964264 0.006115784299698217 -0.007094489073880338 -0.0233889398835188 -0.0009537895414588227 -0.01181425587846941 0.005373061819246783 -0.005172189559912709 -0.01152671928352776 
8.726356054012979e-11 3.388036591986468e-11 3.275594352476939e-11 4.714762240684937e-11 -1.341942963706505e-10 3.127467974034516e-11 5.859157192034177e-11 -2.065679286988719e-12 -1.416591191001359e-10 -5.670107935308125e-11 
0.001314469182804253 -0.01866360176482628 0.01396209783752654 0.008006505865130784 -0.0001040112975183671 -0.001518183479458855 -0.002547977999403529 -0.00401322526599377 0.02124074479173363 -0.01035390056971423 
-9.919874803918316e-11 5.765423144129069e-11 7.408022246735258e-11 1.993075437993071e-11 -2.371925734673283e-11 -7.263753605930656e-11 1.370612525980239e-10 3.690653157732417e-11 1.458945982148262e-10 -2.732894063705096e-11 
-0.007997926539969341 0.009439842418967934 0.002199900490881837 0.005790693362476698 0.0219915892698395 -0.004334905381182291 -0.004275818905346306 3.661118636504002e-05 0.003082322858509856 -0.00983331724923522 
-3.281811560411944e-11 -2.782719400485259e-10 4.508250269254233e-12 3.278350216263515e-11 -1.291716011877274e-10 1.540117308542894e-11 -1.903701479492322e-10 4.076447157172982e-11 1.011319771344761e-11 1.546859928948092e-10 
0.02768804563138999 0.000100209969338046 0.005290445136069623 0.0001173557005671897 -0.02044098697261998 -0.005796072131921374 -0.01006268493190213 -0.01488457805430646 -0.003539204011902753 0.00965080264305786 
4.429391520364314e-11 -1.460833614389841e-12 -1.546769419276661e-10 8.225800218166301e-12 -4.216217332703496e-11 -3.893332624601304e-11 7.516097239189622e-11 -1.039270477358026e-11 -8.083799563084858e-11 2.205767940410187e-10 
-0.001203229021821913 -0.0008349101180282834 -0.01499030624622124 0.003128396707181758 -0.01791772789632637 0.01233248142637097 -0.02053593359355793 -0.009368266806624588 0.003688579014625201 -0.008555335492845775 
1.514934803000594e-11 -2.33407262048601e-11 2.398329182883614e-11 4.517536064847131e-11 -3.356656657068942e-11 1.729756646359414e-11 -1.13861615722172e-10 7.654926693766911e-12 1.87097402703536e-11 -2.810072973960583e-11 
0.006006578820057206 -0.006086600173035701 0.0188979205519502 0.004668829288504708 -0.003947399853420082 -0.002970403091282847 0.002189141500223512 -0.001460248395762796 0.001281661691314372 -0.0109197261236849 
-8.293869356101289e-11 1.640754800814774e-10 -5.258243562904791e-11 -2.82398217029084e-11 1.690311467967679e-10 -1.232071801020359e-11 1.525766710159298e-11 3.674083072846576e-11 1.339438698964571e-11 9.413642886615978e-11 
0.004328860767470306 -0.002456887045989608 0.002745176426421361 0.001581151108660929 -0.0124025542748375 0.01299890128894791 -0.00509764651828919 -0.0009445946773527666 0.0001596121160641632 -6.551160599019002e-05 
-1.997926519696289e-11 1.309381092737394e-10 -2.514526916181656e-11 -3.879547628602551e-11 -6.918665032964508e-11 -1.538524329129297e-11 5.395475633449966e-11 4.152832732400064e-11 -1.060513770651363e-10 -2.821801755307014e-11 
0.009476098354230113 0.01083170604580468 -0.00908975413794981 -0.003634356719719029 2.763609997001865e-05 -0.001770221316644252 0.01695551343511495 -0.004057920415453173 -0.008043793495818286 0.01282488836538662 
-5.729809137652968e-11 -1.172863357132184e-10 -6.450730113729279e-11 2.534445430877076e-11 -7.869463660628825e-11 1.429996066169127e-11 -1.597696364949989e-10 -2.130122549472948e-11 1.238446949102077e-10 -1.966891317761608e-11 
-0.01224018095726943 0.01068093908744793 0.0007826312426160051 -0.001973968730839416 -0.01264534809519915 0.0008994610180200955 -0.000697767239410425 0.0009169938163530219 -0.003249950386884186 0.0004389710846681819 
8.136981792468724e-12 1.964868760073895e-11 1.511161567140757e-10 1.411694876267077e-11 -1.038649327430232e-10 3.553918170269487e-11 -7.810986405588333e-11 -4.072363540681216e-11 -6.790980401257376e-11 5.522630285473992e-11 
-0.007337772461916623 -0.01611108523370886 0.004596262217266098 0.002495897821866544 0.0009570869848693984 -0.004132252396919734 0.00224026590188233 0.001922965982778134 0.01139796087747994 0.005589705426299254 
-4.150756576387067e-11 -2.228990648917689e-11 -3.801859924443012e-11 3.915108927273436e-11 -5.900409623573393e-11 -5.454830251309867e-12 -8.576689254479454e-11 -1.289860053504878e-11 1.079313487189857e-10 1.047261948685676e-10 
0.007015884922687684 -0.008517315354739775 -0.004667548496914487 -0.007117910850367788 0.006357752416647022 0.003162965078960237 -0.0002965346933339583 0.002290952100661658 0.001230953223115301 -0.006071642266626797 
-1.033435122439964e-10 5.586489633538414e-12 2.210104833627612e-11 -4.908550112324232e-12 5.060746529690414e-11 3.029944029784985e-12 -1.60391546301169e-10 3.047410247316447e-11 2.608816861390054e-11 1.691966508355223e-10 
0.01812986454541641 -0.004608185094190102 -0.02176926346663421 -0.007234017455265314 -0.01811964404635584 0.008272571415742256 -0.007011405456908703 -0.002741123263515873 0.009399171034998197 -0.006304349773719705 
3.363941001182825e-11 -4.182096157811121e-11 -1.027932415365445e-10 -4.980902156906596e-11 -3.886651155650601e-11 -6.691068360577002e-11 1.31022092754079e-10 -2.197787971610338e-11 2.590662856298404e-11 8.046600155350908e-11 
0.01206471346215386 -0.008357601506563448 -0.006239137117580113 -0.00120239979607663 -0.005032840008372044 0.007526989404056882 -0.01397983474808372 -0.004884425983111986 -0.01647879783990435 0.004083459135559511 
-5.266090448254475e-11 3.627992047486537e-11 -7.498326595828906e-12 -1.01605180969208e-12 -1.212771366750749e-10 3.781112522296176e-12 -1.653862602149856e-10 4.929151539397353e-11 1.560575391271443e-10 -6.983635627292252e-11 
-0.005808831046142472 -0.001717329779822603 0.02943168888236844 -0.0005309482164451259 -0.00329917322056708 -0.005775898986458098 -0.001186894706451344 -0.00191823592813027 -0.01396637884455146 -0.02054033531669771 
-1.155326226472566e-10 2.812425753379503e-10 1.79144225780046e-11 -5.28239930998826e-11 9.137742570678205e-11 -3.109510982009268e-11 6.169216118194124e-11 1.100529674412087e-10 -5.386422831531961e-11 -7.597890728174878e-11 
0.01006229979774797 0.004083238667824415 -0.000416023487583715 0.003111802505523871 -0.005097401270411367 -0.00434463800127988 -0.01586901850793302 0.01393492260754316 0.001855558816930695 -0.01881902705344451 
-1.087463001899463e-10 -1.248590797024092e-10 4.446014338786404e-11 -1.865674312478184e-11 2.608989919600548e-11 -6.919832889866218e-12 -2.975527067715662e-11 5.464647787633248e-11 7.595058812829658e-11 6.362664026928315e-11 
0.007159107346284247 -0.01376027477092221 0.008350381982586339 0.003684089187919757 0.006185094343245193 -0.0003934196729689478 0.01095034399850659 2.788285513065598e-05 0.001529919458690867 -0.01811079951113946 
7.352720823533739e-11 -9.432276144000552e-11 4.941208251411625e-11 -1.827280941308315e-11 7.293934530674035e-11 -6.014035670988279e-11 -1.019940511822008e-10 8.508457966873863e-11 3.377109224856166e-11 -4.787405289456495e-11 
-0.0101278231753428 0.01129017155950647 -0.01884275395748156 -0.003248352876608102 -0.00694899279244261 0.002176879777195629 -0.01870245603670875 -0.001131474531174271 -0.003169424602432001 0.01429964422191126 
-5.839646418628325e-11 -5.233860059849286e-11 -3.023871324939495e-11 4.803140005370233e-12 2.204729998476163e-11 -5.613830725299804e-11 2.189829094515865e-10 -6.238791289446869e-11 -6.1289271634251e-11 -5.605112647279133e-11 
-0.01148164179586516 0.0088238698116002 0.01804632177781106 0.001222555802500708 -0.01241986636759491 -0.001365273062341864 -0.00960193353131592 -0.005705909010883791 -0.006521802554479021 -0.003311432144458352 
5.04293775746204e-11 2.458097576043973e-11 -1.830837108050655e-11 -1.665011727759176e-11 -9.624767846331372e-12 -8.987573499772555e-12 -8.421667223425182e-11 3.130710356085814e-11 -6.109074601967335e-11 6.739629741533852e-11 
-0.0002078240540866154 -0.005213993023440956 -0.0006266924719136557 -0.003061489417153038 -0.0004399367142891686 0.005335467405733305 -0.0006782995631760205 0.003216446520067661 -0.01366122150829231 -0.002555026487336945 
-1.855081140883003e-11 5.035551461152376e-11 -8.181567765866578e-11 -2.620077890144903e-12 -1.22707819020034e-10 4.376809527003588e-11 1.508834403271191e-10 6.407046839290665e-11 -6.338353767057935e-11 -8.20197965755899e-13 
-0.004835633611114519 -0.00671179672397884 -0.007954801792737323 0.01382049022510407 -0.003786547311204556 -0.002307415110230801 0.009327684029030272 -0.01174352892934549 0.002561477267248775 -0.02234565457043269 
-5.252810003504101e-11 -4.937743919256107e-11 2.374779216543673e-11 -1.678622026065688e-11 1.142769723997194e-11 -2.805035218339721e-11 1.281021999464218e-10 8.931576447493432e-11 -2.792452095611224e-11 2.686219651590307e-11 
-0.01648917949184896 -0.02011720650478907 -0.02028610537970302 -0.007907113351105988 0.01620053459549986 0.007739174089054861 -0.003131902242297519 -0.002949533628926313 -0.01467951765334543 0.01772108200670109 
6.184645681644756e-11 2.745284841758958e-11 1.684725272397354e-11 2.275257792237745e-11 -1.480737827885148e-10 1.946684858083732e-11 -1.63624037037855e-10 7.96376088516481e-14 -1.85321417242857e-11 2.509008325199705e-11 
-0.00561701427406703 0.0006444283916058316 0.007282091917775869 -0.007775314970750597 0.02528399457472474 0.003297140664176533 -0.008486537105227598 -0.008488850239779385 -0.01222675807667127 0.01427417152447381 
5.748155655340424e-11 -3.620459890763955e-11 -1.351270309125069e-10 -2.269001871280768e-11 -9.434120838875007e-11 2.298421444834093e-11 5.825868580024916e-11 9.167464379199864e-12 6.446058606494586e-12 -2.33807320773755e-11 
-0.004241094706241958 0.01324575099120944 -0.01177175914882823 0.001819506918345959 0.007247715893920322 0.01596555374118043 -0.0007811289031078962 -0.008746504025782564 -0.008574959748124514 -0.02126258093293079 
-3.233274208873858e-11 3.031150795993967e-11 -4.326527444310323e-11 -1.767531660933757e-11 2.533475971639295e-10 -2.820785916559833e-11 4.803086138971297e-11 -7.727791019019706e-11 -5.273461649933216e-11 -2.032543442057019e-11 
0.01005693719454327 0.003507319938447438 -0.01043161012645396 0.004822049103562113 0.03030438493209173 -0.009865594274325271 0.01383267449739252 -0.005037534283720187 -0.002750930232482988 -0.0176974287111549 
-2.362477425135922e-11 -1.027376810286603e-10 1.736757226903872e-10 2.479797008143454e-11 -1.716733883115503e-10 -5.017371855938551e-12 -8.173852496084839e-11 3.527251719707041e-11 1.192647865546084e-10 -3.571504067710432e-11 
-0.003704228706360856 -0.0009820803828243809 -0.02628662029423734 -0.01299503009388676 0.0002398411469947895 0.002557643213678268 0.02030047229174792 -0.008434706431195375 -0.009755004508378157 0.01572435214242715 
9.524788515621214e-11 2.24955581882117e-12 -2.60289746087919e-11 3.986972042244856e-11 -2.117747890985811e-10 -1.839896919282624e-11 -1.712248927929816e-10 5.728756502829966e-11 7.085360627574829e-11 -3.832184519446689e-11 
-0.01354001768838497 -0.006207974266847808 -0.0003874723466659854 -0.01371991036803545 0.00285605039167474 0.001319919579242144 -0.0087537872249743 -0.003354172620554059 0.006663774395833278 0.01172199125399975 
-5.563950337367527e-11 3.630188669228726e-11 -7.306913662471978e-12 -1.016576765969806e-11 8.296343721697791e-11 2.291197528276095e-11 -1.168055507316111e-10 -5.763248334259869e-11 6.875841360398535e-11 1.214611930917325e-11 
-0.01772506009311603 -0.003526036894600197 0.01018803322121723 0.001869525858080017 -0.01709914564667661 0.01491058804578361 0.001230769453103877 0.01307788369356398 -0.0120596635859066 -0.02055186061827194 
3.179854573235891e-11 2.39484285797425e-11 2.052150763055778e-10 6.124609657717615e-11 -1.000947722062399e-10 4.578785088951623e-11 -8.278590135783903e-11 8.368946227543858e-11 -3.952147990523198e-11 -1.235912290521954e-10 
0.001478904418453029 0.001478711598696724 -0.0002761484812130806 0.005782288782326978 0.00158644069011144 -0.003486473843781579 0.01169022089615344 -0.00378133090336645 -0.0008373747066710033 -0.02178681894241044 
7.237470660602078e-11 -1.451756035300381e-10 -1.695670211548782e-10 -7.708215568521282e-12 7.372651627594649e-11 6.265417980060228e-11 -4.203324643451434e-11 -6.944700038997912e-11 4.327103730091781e-11 4.285168466682584e-11 
0.009110327727755755 -0.02360991422307989 0.003600407183096355 -0.001726885829187095 0.03002446205710888 -0.002215216041918092 0.005140815605945922 -0.001528957251129952 -0.01337213298271936 -0.01452344826969422 
-4.410255093934818e-11 1.820290165704127e-10 6.516491474378606e-11 -3.22777284493014e-12 -7.917694428070211e-11 4.480399817302051e-11 2.688463451069617e-11 2.461399322910875e-11 -1.011703822849243e-10 -6.953428935812592e-12 
-0.006086117491238304 -0.01130008379899042 0.009235298964013405 -0.00121077985988295 -0.003730139008003216 -0.0001664754360399512 0.01205387744047432 -0.008380711280865935 -0.00530887369040598 0.006715668715154488 
-1.964826172820058e-10 -8.459807247295618e-11 -5.738632213885156e-11 -1.244173506995096e-11 -1.521867496757663e-10 4.292167402499454e-11 9.68456647782984e-11 6.53352265069595e-11 3.442254244923201e-11 7.105509603791595e-11 
-0.01113682404469608 0.01040555313327903 -0.007423717396445814 0.000252177163705822 0.005313763443164767 0.0141857957871113 0.00397927147533506 -0.0139967589404353 -0.0002327673515292181 -0.004182495775113234 
1.612334145316447e-12 7.555857729959968e-11 -2.653803435962236e-11 2.170173913721142e-11 1.040914620390844e-10 -4.494708703661487e-11 -2.844275842507209e-10 -2.244320635129401e-11 -4.291820634144257e-11 8.601813020235408e-11 
0.004079025445685137 -0.004747394419528745 0.01086175394680718 0.006512236788236402 -6.463706593285584e-05 -0.007701628087697064 0.005689423260818129 -0.005296569270721873 -0.006267665008884791 -0.02358770104705015 
3.931564944571088e-11 3.409878099108107e-11 5.487483511160654e-11 -2.225689950293025e-11 -5.451577079744314e-11 3.551925919247459e-12 -5.643406769540011e-11 -1.202118860630775e-11 -2.285174622870117e-11 -5.995359809739445e-11 
-0.006830463844543334 -0.0150501343279526 -0.002415672388395438 -0.01039677723407865 -6.981241470953614e-05 0.000334926817604362 0.009534629148421179 0.006251678979689716 0.0006838332401599581 -0.004465717106268452 
2.390190222431638e-11 -8.230595156408781e-11 7.789804915604777e-12 2.269592813817151e-11 1.94006690556171e-11 9.003482730410745e-12 8.36273006015182e-11 -2.689649996805778e-11 7.858915004793018e-11 2.349564198940934e-11 
-0.01387074277140292 -0.005947107935551085 -0.01142138584800681 -0.001199485181445929 0.02581367193593104 0.004957735348094075 0.003787069381255462 -0.009080623035290445 0.00436092226395544 0.000766113666511942 
-1.211061547715021e-13 -1.329563641557144e-11 4.745295141926566e-11 -3.187341729921452e-11 -4.149738918889426e-13 -3.419527291348124e-11 7.775923765943572e-11 -6.016554967837132e-11 -7.333553153993006e-12 3.847980513533403e-11 
-0.01318937999484534 0.003836886790518904 -0.002538273819591196 0.005132012086640239 0.00683089657521825 0.02344884060193762 -0.005146149057071006 -0.002566612704586727 -0.0106331894491385 -0.01816196999862413 
-9.635627669256626e-11 9.158555458850948e-11 -6.278387142854097e-11 -3.540890195215851e-11 -1.095324880322194e-10 -2.905217259351352e-11 1.87494543881456e-10 -4.138393262005334e-11 -1.243797440418982e-11 5.312509921147621e-12 
0.01213756021614762 0.002209542339103596 -0.002615158368020286 -0.01014855689345183 -0.003777701911584723 -0.0003066559160476106 0.01343959312928709 0.00980960434469311 -0.008579041767134804 -0.01630638743098379 
-1.396947310720111e-10 7.278753774851194e-11 -5.189788762953024e-11 -2.754952522609642e-11 -3.052241061729269e-11 -1.442181367641091e-13 1.224930829099392e-10 7.057993700206202e-11 -8.358536637399841e-11 6.18272400780052e-11 
0.01170075441016977 -0.01439511378225983 0.004214469485143272 -0.007404399349891317 0.01670765213198847 0.00786671266982634 0.01234873511910425 -0.004344441660556784 -0.004411251119731784 -0.02918063510611068 
-3.771893667055299e-11 -1.739134146634568e-10 -1.999207803634083e-11 -3.530778083234173e-11 1.179319908366338e-10 -1.976648902873172e-11 2.660299789076855e-10 -5.448112317913155e-11 5.12244839691396e-11 -1.669506881628489e-10 
0.004669935371945496 -0.02292396320305285 0.007047055922376898 -0.00878385303545594 0.009451999094733541 0.01407278508945123 0.01013531865021704 0.0006405247413275637 -0.01389096448099209 -0.02388976823384871 
7.910247901272244e-11 -7.091180522333431e-11 7.221686678359065e-11 -7.082825721166114e-11 -4.155015974634824e-11 3.487913790216211e-12 -1.582848969113999e-10 4.219585991542525e-11 -4.690441508836872e-11 3.268226380872355e-11 
-0.00542032396515744 0.01411192161198414 -0.002839363121733275 0.000839648399569734 0.00452833892288632 0.002219528733581323 -0.003995951287282467 0.00106625326223417 0.005966974138451066 0.01727858459909036 
2.468511621189388e-11 -1.079971285858019e-11 -9.232355379739531e-11 1.039512533936503e-10 7.242793787936636e-11 -8.984895117640141e-12 -8.439645478921643e-11 3.112421147623691e-11 -1.998757205296905e-11 -3.676548602707955e-11 
-0.004858175102634498 -0.0004985924125604914 -0.004543651643589042 0.005750722017484543 -0.004143353532350872 0.007417651679182076 -0.001537486374207089 0.002370924230662141 -0.0007006533346424406 -0.0197077954421691 
2.443299684279597e-11 -2.038995570082255e-11 1.122521669882129e-11 -9.594782195139376e-12 -1.005906962050464e-10 4.485219221168571e-11 -2.799068420432098e-10 3.488578335346162e-11 -2.243585871367706e-11 -4.434588952072386e-11 
-0.01133977815622642 -0.017043477513533 -0.0002628821345098725 -0.003982492982364704 0.00644413495977597 0.01500453435868944 -0.003270740825801241 0.008630842129208999 0.0002376197636649626 -0.01879315663051897 
-7.23573594726928e-11 9.869954668011884e-11 1.147022093602773e-10 8.72708741010487e-12 -1.004331505563362e-10 2.262973529951485e-11 -5.963966184348689e-11 5.409794351297095e-12 6.946390512208418e-11 -4.274126732938526e-11 
-0.01448071256569942 0.006719963043090514 0.004177820843666931 0.000138936067437027 -0.002901104293732839 0.00865078786483189 -0.009425780788082263 -0.007561353488359822 0.0007734967118082959 -0.01262934493453433 
3.998439516178434e-11 5.32455891412323e-11 -6.393627580186585e-11 -7.637518000791249e-12 1.879583656769101e-10 -6.0543093101348e-11 4.779570144086297e-11 -9.383685158591715e-13 1.455698122144404e-10 -3.219674611250694e-10 
-0.01742937255119409 0.01051854975153911 0.01718590507343004 0.003801664236884326 -0.01275670535911897 -0.01069718589631798 0.005410437321711374 0.01143473242433002 -0.01423422931168423 -0.003643260178474299 
-1.081190558248241e-10 3.314333940041879e-11 6.737872390170786e-11 1.374954375931731e-11 2.79183990421887e-11 2.983048919949638e-11 -5.144605257158863e-12 8.005584184307026e-11 -3.712470438803016e-11 3.40885635747759e-11 
0.03158690525710099 -0.005473675591435894 0.002457335237288449 -0.004958962681190605 -0.02052316408599001 0.0006046416840891318 -0.01555035848424221 0.01931619222036856 -0.004688268154305114 -0.0113339289041572 
1.148179867460821e-10 -7.651262511343394e-11 1.038845640112192e-10 -3.772919173284395e-11 -4.326674817077741e-11 -2.617770820510638e-11 6.534128131036891e-11 -1.364827837139385e-11 -4.826135646347741e-11 -2.80417479331031e-11 
0.02405587629107927 -0.002689387730741229 0.003864399134641146 -0.009956755716586796 0.008141919268811621 -0.0004238576270935079 -0.008983124563348852 0.0005585647188387575 -0.01097471556513121 -0.01871723853175009 
2.757607627545414e-11 -3.785243297837478e-11 2.814121445236587e-11 4.239040670050313e-11 1.954133338194282e-10 -5.464139999388867e-11 -1.780054120570474e-10 -3.326693091132642e-11 8.94832899751773e-11 1.052701624957985e-10 
0.01905008261356956 -0.009113075982941811 -0.01339950095971245 -0.01007184356275807 0.004376498445826078 0.01214120137428964 -0.007800533498732142 -0.001658026186262136 -0.008034850881141378 -0.0104994347622986 
3.758524594545743e-11 1.087633144256165e-10 -7.069836404654789e-11 -5.27116367497519e-12 1.12618828126619e-10 2.407133246084064e-11 2.388221407472391e-10 -4.688140411955996e-11 7.501931363090076e-11 4.332685947695284e-12 
0.00569285508759317 -0.01629260353781712 -0.03502909345410041 -0.004775785591395959 -0.0002166697045282268 -0.0008360368337839789 -0.003381998335282434 0.01049541858740172 -0.004711582667344756 -0.0004164757047203993 
-6.811269356558944e-11 1.205864337249586e-10 -9.016291068214804e-11 2.629955473045213e-11 -2.609333701437482e-13 -3.678461817523272e-11 9.450630719104828e-11 7.989997210426942e-11 2.340434929866236e-11 -1.007029799002868e-10 
-0.003371405551138555 -0.002943337637881828 -0.008299799607825255 -0.0007193041549453446 -0.004405368493416058 0.004361488339372086 0.01820647390730079 0.00475327544277225 0.001214232102023977 -0.008466593502051496 
3.6070389355483e-11 -7.145977679917529e-11 -7.554455093312655e-11 -7.305340802990073e-11 -1.270814540178597e-11 -7.054081162131204e-11 3.93048655641469e-11 2.571114321695714e-11 -6.754161766410466e-11 1.85760040195969e-10 
-0.02115899508807337 0.005144581137699722 -0.01130297165224813 -0.002429631246323672 -0.0002058261473609821 0.01120736819099352 -0.001680139500804958 -0.002649198010119592 0.006844114307002733 -0.001823677090789794 
4.654484600224104e-11 1.055267721096587e-10 -1.163645032546861e-10 1.479216292801092e-11 -1.201557590299333e-10 -1.030900033676663e-11 -5.111063894860889e-11 -1.571519830111926e-11 1.003592173591741e-10 4.034990999527819e-11 
-0.01497995925858344 0.007769371388008532 0.003614921344390412 -0.003470566102509481 0.009746203343241102 0.0001347205713913763 -0.008109624210947857 0.0001087467920229466 0.006743041947219352 -5.569061245253286e-05 
-9.469783034060326e-11 7.356864322642548e-11 7.739052317601242e-11 -1.282363287977536e-12 -7.971427397013975e-11 -5.115743278343502e-11 -3.5497124528894e-11 7.839352949332276e-12 6.061299492503265e-11 -6.898563089242514e-11 
-0.01018624330873658 0.001767657058709609 0.004839412845645568 0.01319206394321969 -0.005854428857637606 -0.002300671046115641 -0.02654749459849827 0.004749842557061415 -0.01910821513272655 0.002252234837960286 
-9.783066164546881e-11 -7.597815499176237e-11 2.236931076825599e-11 9.287051566164594e-13 1.109927313923366e-10 -1.854358961795903e-11 -3.290096921784814e-11 5.263686354138412e-11 3.660603019081999e-11 -9.903423555867184e-11 
0.009958083860808093 0.006260904380805674 -0.003555941134791389 0.00249292673059933 0.01522121738852283 0.001271032805041127 0.002621932028677232 -0.003454060883760283 -0.02551573533389286 -0.001666215690858859 
1.12023774246276e-11 -2.574710513501975e-11 -1.14106140967236e-10 -1.152024873830076e-10 6.419482400203057e-11 7.607658648103195e-11 4.595819984645947e-11 5.713823671295141e-11 6.386595702116787e-11 -9.183757210285945e-11 
0.002115885668844699 -0.008834620795527062 -0.003855850318306654 0.0005462507968134263 0.02182621669054868 0.002887355705817681 -0.02517819668746593 -0.01302113753120705 -0.0181702004547848 0.0107095431876267 
-1.290643448835885e-10 -9.67776961062356e-11 1.567070208118968e-11 -1.174703007963182e-11 -2.067976958350145e-11 5.323076422906328e-11 3.875483354549393e-11 6.640062882456401e-12 -3.736570826347658e-11 1.571973884312052e-10 
-0.007706511180691826 -0.003614033926468972 -0.0004449730906657318 -0.000187009570230303 0.03173921750387363 -0.007733816028621889 0.006547481270046646 -0.009164082668910906 -0.0216963877000159 -0.002436687829404615 
8.537154421521922e-11 1.035324402343088e-11 5.552176392433322e-11 4.801823862338607e-12 1.131003296469636e-10 -4.831304442667387e-11 2.009354953392456e-11 -1.96778142163674e-12 -1.616761631358654e-11 2.839088320926998e-11 
0.002278002089570698 0.005421317994341684 -0.00236017311722184 -0.003914281358619091 -0.01610176809016063 -0.00102889022506429 -0.01891243803696098 -0.0009977135662325306 0.001176831232323356 -0.01198287523928896 
7.846307712204589e-11 -1.277061965076111e-10 -3.755579802672563e-11 -3.071552146534372e-11 7.605369374705003e-11 -2.120009478503673e-11 2.462265422937355e-11 -1.539474385336635e-11 9.18064564014408e-12 -7.097848449275784e-11 
-0.0003262210859296936 0.02489988387534336 0.002320695992216622 -0.006384020304040097 -0.02035667089686191 -0.00349887675230023 -0.02634424437262929 -0.0001227410524172879 0.01354950764388934 0.008178023319983171 
-4.021523059066305e-11 3.242811054700666e-12 4.935053352032875e-11 -2.183511104300422e-11 -4.072907443397654e-12 -3.722518459922564e-12 -3.588743785182645e-12 9.403096695056591e-11 5.349882120983023e-11 5.458893291891424e-11 
0.003220098334560116 -0.01329591151193544 0.0117274185227626 0.007388860191998563 0.01595691225931214 -0.001361826909379836 -0.003329589143371131 -0.00257376563162448 -0.02771201360570516 0.00453108686125807 
-1.154244745329967e-10 -1.454147708043427e-10 -1.38722226087992e-10 4.942662197939403e-12 -3.307804406125209e-11 6.64914837445862e-12 -1.289898891804835e-10 -5.23280199291642e-11 1.484513968471051e-10 1.208153308861126e-10 
-0.008640789600390017 -0.01335896287815042 0.007556863757070702 0.004930459421121173 0.01925166557925296 -0.004423648084428729 0.01399472263720196 -0.0006411285591656191 -0.01909317832869505 0.009843093426841301 
-7.305541501760541e-12 -3.619497082581774e-11 -3.080635427203188e-11 1.287942384428093e-11 1.81075297105185e-10 -3.624854710172688e-11 4.484041864781984e-11 5.267583492252424e-11 3.65580016357843e-11 -2.144654627397869e-10 
-0.003155355522790453 -0.002805805466809635 0.0153155692235608 0.0003956144283934178 0.00939319445826396 0.009024082884877778 -7.616694914389045e-05 0.003809207138335039 -0.02528142192228014 -0.01006466067392888 
5.169072699790054e-12 -1.5731907501577e-10 -9.352142837129488e-11 9.62812873210115e-11 -1.415988558244206e-10 1.017484489851082e-11 -4.281910639837576e-11 1.674872458369899e-11 1.985572064227256e-11 -1.092982329631613e-11 
0.0136192721299087 0.008796212031327921 -0.00468690894264741 0.0003666133020698682 -0.01798035654491759 -0.004604081536057502 -0.005260033378457489 -0.008899351222391124 0.001227452937650076 0.01503045855008746 
-6.745179428806368e-11 8.981789093885021e-11 -3.420692575862202e-11 3.551891241643069e-11 -1.443608689896963e-11 -1.699890277819752e-11 -3.382525578744635e-11 1.43045584749427e-11 1.143551701730329e-10 -1.192222489220608e-10 
0.009008486191906214 0.004701857212627817 -0.0168377942131914 0.0001668047142563505 0.012297925709025 0.01190940256533489 -0.01615611065247025 -0.01202234203517123 -0.01225493315547874 -0.01379175384941186 
3.791928311532846e-11 -1.075767957838791e-10 -7.720673515890077e-11 -2.836421456667924e-11 6.882344686984279e-12 -1.099141386443649e-11 2.095915102386106e-10 -1.477498158496595e-11 9.400191515440816e-11 3.295610471687759e-11 
0.02537329781131119 -0.003210803486679971 -0.01693587928222145 -0.0004971677608547305 0.02379865381344158 -0.006747550177685968 -0.004132563723862431 -0.004246827400749382 -0.001952912904354868 -0.01950343597373692 
1.290075952503175e-10 1.09714733623823e-11 4.063253205376573e-12 -1.745722160677974e-11 -4.565897483860739e-12 2.885079863987471e-11 -1.549774119921709e-10 -2.724185433002062e-11 -4.169393603213311e-11 -2.107998018147979e-11 
0.0001394903981348611 -0.005519442431417183 0.02395744238904358 -0.0004782222703356884 -0.008547260528256289 -0.004750290767935444 0.01154375038205905 0.001418372516717568 -0.002254966332713225 -0.013511799375004 
-1.303191919474602e-10 -2.114812948643294e-11 -3.14549711823674e-11 5.010499068745995e-11 -3.601441839382257e-12 7.665137883756554e-11 -6.009635397009939e-11 3.260849852816661e-11 7.691651133872594e-11 -8.045207969926297e-11 
-0.0001392142738690853 0.02025028340523117 -0.02077589526943153 -0.005300148666596064 -0.01053389339585684 -0.0004644069157980928 0.009854312773165593 -0.006109408673170513 -0.01125342831471748 0.005431872227397536 
-6.779307704486637e-12 2.953332514886823e-11 8.115028681383808e-11 -1.831099523502998e-11 -4.15417248117738e-12 -3.135675740625083e-11 -3.370512052810136e-11 5.340364418228438e-11 -7.779611701076231e-11 -6.920196656192849e-11 
-0.005003714727209182 0.005607059194554823 -0.02010900368797345 -0.004231877637108243 0.0363434681043945 0.00227991637583161 -0.02158776240146142 0.001755344511847227 -0.01468460536163697 0.0004361744126270127 
-1.289336233063094e-10 3.378650365622644e-11 -4.024237565221416e-11 1.276917625029388e-11 -1.278242122368324e-10 2.423899663023521e-11 -1.19809949931495e-10 1.235069222580164e-11 1.379160224939185e-10 7.719827383935005e-11 
0.002124400724742836 0.01574985816555302 -0.002506480082244895 0.002867303036375962 0.0321119561959642 -0.00943183472881442 -0.0007263919356502682 -0.001044101862946084 -0.01114297485878626 -0.01781883122855439 
2.479159895805153e-11 4.378058956984089e-11 5.956359155159329e-11 3.644159375140271e-11 -9.005831234763921e-11 1.887472293770997e-11 -2.734453347397252e-10 3.672858457191969e-13 6.190724588692273e-11 6.03399444280988e-12 
0.0002303467228546959 -0.01423112979351234 0.007826430510365936 0.005665522588981896 0.01687167941752938 -0.0104649055265098 0.0006887655257648905 -0.01073759830260704 -0.008356598327229719 0.005590207700734688 
6.71146508541516e-11 -6.951547519228783e-11 6.063237754274883e-11 4.534414813735825e-11 -1.140540793427647e-10 2.905489137840251e-11 2.21422209677907e-11 -6.034284068400605e-11 -3.499455097872617e-11 -1.254350711159088e-11 
0.02782091946936022 -0.01417183712286294 -0.01216396211127112 -0.004708241242096349 -0.001970682791256304 -0.005095128200437619 -0.0001900024773794242 -0.008229616580858861 -0.008750628541924689 0.00286724655041126 
2.835121010311527e-11 4.421782797037509e-12 -1.029179526710908e-11 3.023439496042814e-11 -1.285244662284128e-10 -8.134924387839989e-12 1.628312652935682e-10 3.529446337760779e-11 -6.412904825639473e-11 -9.496357166771026e-12 
0.003378434199462202 -0.01157030345905604 -0.01429865975743844 -0.006507178532495284 0.006537101253957279 0.008730088499602056 -0.006878124796022372 0.004519607642930865 -0.02972149379831793 -0.01577871578298322 
-4.225336855707843e-11 1.069959201378926e-10 -1.140472606907749e-10 -9.161054641415664e-11 1.638706442007588e-10 -4.535455536211423e-11 1.745997184852398e-10 4.619852924629486e-11 -1.524011984943241e-10 -2.722787731021185e-11 
0.02384353298712593 -0.01461919822709735 -0.0006066797967487369 -0.00600193922014262 -0.01235642420843272 -0.01517084899348202 -0.01642654788250167 0.006282913298249265 -0.005520685849404704 -0.005766175247083638 
-6.220473986451375e-11 -1.375204015196876e-10 1.193620176937086e-12 -1.835277055260385e-11 -6.017678114573324e-11 -2.935955835250158e-11 -1.354264521368152e-10 6.335478611045265e-12 1.236449882535005e-11 1.796505709091801e-10 
0.0124007004029209 -0.01752328791766936 0.006739858118550216 -0.002193252370281658 -0.01908837870519479 0.001582470208145109 -0.01431984737023936 -0.01591040607878637 0.003951740705146458 -0.008385497617934697 
-3.473342392013415e-11 -9.026479389809467e-11 -9.335552240923264e-11 -3.166037965941343e-11 6.956785709361739e-11 -2.643348607329224e-11 1.922025564170099e-10 -3.352226007573154e-11 -1.651701319809128e-11 7.074135812268867e-11 
0.01279423099474413 0.01476156690610405 -0.01852532049074876 0.004709425298601386 -0.008652491267798905 -0.001847297982128376 0.01168200592378863 -0.0206875481727249 -0.008762446979920586 0.02810839055586839 
7.20232648452775e-11 -1.27895921244204e-10 8.821826562579091e-11 6.609494082303793e-12 -6.350193712687455e-11 -1.252168533419906e-11 1.498338889220991e-11 1.56931499160256e-11 -5.583928152120825e-11 7.562538598163779e-11 
-0.001259903763323037 -0.001862188589497489 -0.02578304066679911 -0.006193249767355236 0.02478124495297212 -0.006049410061611337 -0.01232630790413301 0.001234822870870634 -0.01231172104310619 0.0006831957593882926 
5.862819398491736e-11 1.664672358830464e-10 1.107530020100791e-11 1.172647736851489e-11 4.223683879555998e-11 4.592869380041734e-11 -2.47145571210932e-10 7.070290981301688e-11 -2.252000407882372e-11 -1.435701425873985e-10 
0.003828002296538033 -0.006865864977951555 0.006707417843519079 0.003611850482776759 0.03352571742526265 -0.01926584586594244 -0.02572494025310908 -0.009250592472250137 -0.0005778161908366239 -0.0006844371570620965 
9.30622281969635e-12 1.119836477901232e-11 -1.48817625964915e-10 1.555283036104644e-11 2.861879168657168e-11 -5.785006220475491e-12 7.285686940626122e-11 -5.077821612289494e-11 -1.156712255645668e-11 2.39325869015759e-10 
0.00580988308038392 -0.01289075247005681 0.02526688263303854 0.003574707575658137 -0.01705528847381677 -0.00726860286137536 -0.008896413791806956 0.001796115725998962 -0.001719765076026114 -0.01251871555417549 
-6.297565738413997e-11 3.678187415480648e-11 1.535202722463473e-10 5.166123429846069e-11 -1.170231971297493e-10 3.552976461311341e-12 -3.494228828551545e-14 -2.465186291995894e-12 9.282088227924264e-11 -1.595977315797156e-10 
0.02524325202744568 -0.01031643506754063 -0.02130883115624321 0.003985762835633315 -0.01796614278043868 0.001098279091520339 0.02094369607975114 -0.01787996444961249 0.007025960959019742 0.01267744824174939 
1.319122300664091e-10 -1.418072849735802e-10 8.293562312002471e-11 -1.875787537105177e-11 -3.202901783147117e-11 2.779879279369698e-11 -1.128115100129788e-11 1.997131160736733e-13 -1.541762796434473e-10 -6.47166725602671e-11 
-0.0114391488143733 -0.00964245969592786 -0.006039510446181969 -0.008450300629800126 0.003115125013996747 -0.006503271524529626 -0.02123009175896616 0.009032594442944887 -0.008045622501722992 0.00107842725598643 
-1.553378599487344e-11 -1.806942079727952e-11 -4.510275124255666e-11 3.297001991819145e-11 -1.056122290856436e-11 -2.421927841572631e-12 -4.565003494373394e-11 2.043001775284832e-11 1.921259936239261e-11 1.224454516467277e-10 
0.02605715024927361 -0.01177906104151959 0.0124064462529872 -0.003687149757898787 0.007401208859508374 -0.02085757752964692 -0.04041204518381945 0.003682415051134861 -0.01422120909040246 0.005251318456098206 
-8.051455209829401e-11 8.979655614397259e-11 -1.208694946395049e-10 -1.204308510747648e-11 1.427001678438981e-10 4.505823845975539e-11 -2.122700551853391e-10 -4.315417743144304e-11 5.971729144285056e-11 2.503734313754859e-10 
0.01670969722823506 -0.02786943327669742 -0.002088711243387271 -0.003649042108970771 -0.008181649223771454 0.0092250542708935 -0.02184152506564941 -0.008023320028049815 -0.01209673912693185 -0.006978424594950633 
-1.34606791642287e-10 -1.157783507029182e-10 -1.591350523916575e-11 2.648790698848036e-11 -8.355489293335408e-11 -1.254628060749583e-11 4.673761235407787e-11 3.616888490974367e-11 1.077065015684209e-10 -2.634139866972141e-10 
0.009384814931394229 -0.01249631994442256 -0.005906382873582785 0.01184391717218926 0.007842469347741429 -0.005826737114377772 0.02242050431905619 -0.01829239674032237 -0.01464053843215466 -0.007988399268645469 
2.051298712977656e-11 1.829009120172814e-10 -2.884631263473771e-10 -1.412789877284324e-12 1.298784837146108e-10 -7.098753953784136e-12 -9.960224406527642e-11 1.264951918603855e-11 -4.318471082901238e-11 3.928743289656747e-11 
-0.004194985988513779 -0.003229515697733331 -0.01400730313699778 -0.007005922586965556 0.01529901809276727 -0.01666438744920569 -0.02104594463025091 0.001690832486435391 0.000331189571927437 -0.006613211686245946 
-1.550768331408826e-10 1.079783295087092e-10 -2.183088383575068e-11 1.346973178561585e-11 -3.796922949477713e-11 8.154432758276396e-11 1.490764251211787e-10 2.251111365328644e-12 4.67054363774947e-11 -4.520105889646851e-11 
-0.001922893552651808 0.001513637028083868 0.006113136832528312 -0.007781060696802606 0.00766817374418268 -0.02216830467056469 -0.03135326240805821 0.00269822791589911 -0.0004498833619635314 0.00331353940274459 
4.055232457234922e-11 -6.1119411895648e-11 1.4837367980529e-10 4.295832761922455e-11 -2.059438249468064e-10 -4.763532368450368e-11 4.362565156610213e-11 1.631794076069241e-11 6.394318155481207e-11 -8.758094038868626e-11 
0.02399693562516528 -0.006784348392899784 0.002123109624723177 -0.001725361278086887 -0.01074852820808971 0.00778953514498499 -0.01089261072536991 -0.0144751731834958 0.0001699724784717146 0.008002141215739628 
1.562192092897178e-10 -1.303114958458296e-10 4.33558005389294e-11 -5.844885269195096e-12 -6.669434163984311e-11 -1.723567296114587e-11 -7.456288981877188e-11 -3.338204514488408e-11 -7.139415856268821e-11 7.003855570715982e-11 
0.01323481271376522 -0.000764839293408594 0.007860980845833792 0.001896608832734839 0.004208310857140666 -0.004327735858870715 -0.007122950689072235 -0.0169963073198459 -0.00703335628529931 -0.01247598194808583 
1.421759315717714e-11 -1.231106344494591e-10 1.463715212331579e-11 -3.9933703312071e-11 -8.754426352929394e-11 -4.63329533389303e-11 -5.311958512530104e-11 4.90013672965136e-11 -6.0994235536451e-11 9.642146570047678e-11 
0.004616148923443341 -0.01274589503321309 0.002246303679320458 -0.0146752720539604 -0.006188500685437837 -0.009893469588446079 -0.008821298414510955 0.008328855513595629 -0.02467964024280932 0.01148030510340416 
4.483307543594254e-11 -6.470926950873471e-12 3.958593609043672e-13 -6.535109322976272e-13 -6.61471223505592e-11 -8.826616921965206e-12 1.925972317906076e-11 -2.832283541940906e-11 -6.386260050084627e-11 1.482072197349857e-10 
0.01281458809638812 -0.02471902009636393 0.005607329164244733 -0.01962082823611464 0.001482379248744322 -0.01037246723759519 -0.01202685672088777 0.008361934470826234 -0.008470446234876743 0.008211741521331075 
2.572619883132732e-11 -4.745809518640396e-12 6.921484329450163e-11 2.05645027613112e-11 2.455295341130028e-11 4.444513653034888e-11 6.22799424860573e-11 -1.10455528896455e-11 -5.372704359328619e-11 -1.125601907053087e-10 
0.01157608737698601 -0.01414924603602953 -0.006385480674388464 0.0008917049876273735 0.002377963212226955 0.01560132483380647 -0.003262562054320014 -0.01730902576093289 0.0004737814085493441 0.004752859105025179 
8.678475724255003e-11 -4.188941221042286e-11 1.877650212322701e-12 -4.85618817903314e-11 1.685747940533813e-10 1.72971999805902e-11 -1.210719740813744e-10 2.417804702791767e-11 1.116865147401474e-11 9.706395086050502e-11 
0.01238398637589441 0.01076589498903973 -0.005646722215891157 0.009689739746929132 0.02191275646992323 -0.02087359947416064 0.009998993341538248 -0.0199855401239705 -0.006483624047584475 0.00580769525824803 
1.852656426328718e-11 -8.788556685786081e-11 -7.906732733877258e-11 -4.620663352114073e-11 2.482994164961053e-11 2.292538014236201e-11 3.103859963941726e-10 -5.797286669858003e-11 -7.677076996457297e-12 -7.707900317203096e-11 
0.008682522322278114 0.005030849822817578 -0.0005356750846528984 -0.01051700909522876 0.0195821563768266 -0.02921401399722353 0.01366385639306899 0.01270382474162131 -0.01407291533138344 -0.001273337049355002 
-1.271807834422285e-10 -1.084488048751249e-10 2.708219947444656e-10 -2.285076310307917e-11 -1.54803256306088e-10 6.530629289740027e-13 8.005364522358102e-12 6.544402547742232e-11 -8.159815247336695e-11 7.860509524230264e-11 
-0.001655647519343233 -0.01009466865474616 0.01093839877978067 -0.01537368425396894 -0.003914348535311759 -0.02297375564767959 -0.01260093449375375 0.006049856351917004 -0.001198675960942597 -0.001172089013907932 
4.723318979269545e-12 -2.920072758887902e-11 1.362292536428142e-10 3.367428836637268e-11 5.846088907868216e-11 -3.297293288640906e-11 -1.068926480642598e-10 6.522697874650988e-11 -4.979687161264201e-12 -4.373159157872973e-11 
-0.008681891005408376 -0.002677869287590644 -0.01568413574979892 0.002836313659363757 -0.01744540645533128 0.02274355381281405 -0.01179914085839707 -0.01811887766216489 -0.009454898291594483 -0.0225176070429925 
-8.658167749752459e-11 -2.038284342380435e-11 1.161813943857442e-10 3.045347351801077e-11 1.420146799368429e-12 2.696898987902731e-11 -3.276103693411575e-12 4.032342294062571e-11 1.929049386524725e-11 -1.141739459104975e-10 
0.006415172329150938 0.0009659964138309394 -0.01212725941644511 0.007025825159204915 0.003116663383457524 -0.007386725978370317 -0.002435205964822462 -0.01035001795821628 -0.01005417761597392 -0.01079443697289055 
-4.347504274742737e-12 2.542148793604309e-11 1.072010490246954e-10 7.157398720127473e-12 -5.145605039656807e-11 -1.13801710287973e-10 9.519907782821665e-11 3.372261421796304e-11 -9.905714815386906e-11 2.416942727590374e-11 
0.009128660891296868 -0.001246469220643069 0.00608781383780682 -0.01064602885712739 0.005854388135975545 -0.01268455883596034 -0.0298871832067997 0.0008315963894722192 -0.01390432207625144 -0.0107626509176278 
-2.023955878639618e-10 3.924613447030998e-11 1.643344403976505e-10 2.609753309234522e-11 -8.987002299760318e-11 4.028575721535725e-11 7.376769240725744e-11 -1.123960058519526e-11 1.115722961619097e-10 1.397732739137365e-11 
0.004834007837989653 -0.009980349164885573 0.00883751521701831 -0.009244989038565387 -0.001037367551489011 -0.00694730044540686 -0.02263674315865862 -0.006309398417309433 -0.004158885767265532 -0.001690056064145139 
-1.173809705786642e-10 3.277802558019957e-12 6.986073709391319e-12 1.312406337059522e-11 -6.062140871960539e-11 1.63672528895612e-11 -8.656237514639838e-11 8.174536779565151e-11 -2.690171222279732e-11 -5.773649491107053e-11 
-0.001484597679198373 -0.01147127931790184 -0.005492043585700343 -0.005300701026343094 0.002995153987309508 0.009894453866779944 0.001499637554435261 -0.01567855606592854 0.002674754574436684 -0.0132942392103847 
-1.207131659661867e-10 -1.04769343231455e-11 -1.800254694537149e-10 1.89603307934891e-11 -1.330912993612571e-10 3.016129216435611e-11 5.554969900639913e-11 -4.011348979008321e-12 -7.735183296186835e-11 2.892198836635695e-10 
-0.01355267681154177 0.002622304691996543 0.002422180624364212 0.00369323996418317 0.005661471611213239 -0.001619232139832374 0.008384859319598733 -0.01164408071879525 -0.003625847986703173 -0.01437549369785228 
5.567708134122369e-11 -1.1305953307154e-10 5.374691137599278e-11 -3.175691545270201e-11 -2.901583604114722e-10 -9.06496107171852e-13 7.042458697581964e-11 5.839577909077755e-11 -2.371894464608598e-11 -6.629670363791008e-11 
0.006261328370105053 0.002183263547533622 0.006442818495895666 -0.008977244780541509 0.01407111535595901 -0.006631504497054959 -0.005676368014797373 0.01799097754012177 -0.005944419994353605 -0.02743519377147931 
5.955561530196668e-11 -2.559102080829153e-10 -2.347550660939224e-10 -1.323746111468253e-11 1.429211438321978e-10 5.65679923620868e-11 8.947817177069916e-11 -1.608013880936976e-11 9.685265739295968e-12 1.31345396877635e-10 
0.003230862823103441 0.004714085998064371 0.007581157132731438 -0.004245600071805296 -0.001357303963334077 -0.01551050656923318 -0.02245870321041975 -0.005773408015651559 0.008582554386345788 -0.006742674341472358 
-1.880303111350503e-11 -5.599526845136581e-11 -1.012435157569419e-10 -2.072624566841837e-11 4.803484009362623e-11 -1.295688068387455e-11 1.2803640620198e-10 -2.156516747993509e-11 4.979915167945251e-11 1.927253795711908e-11 
-0.006978067552789873 -0.008326025972073652 -0.002244747466416826 0.007451730960072453 0.001167761065650397 0.01303070895759364 -0.02132552709926437 -0.006877128237270057 -0.01332434001352033 -0.003236977416057358 
-2.559857394879618e-11 6.609429369711179e-11 -3.363246235344162e-10 3.538725254576014e-11 1.347688564135903e-10 3.217434501881411e-11 2.029668455892306e-11 -4.257967451655966e-11 1.034513302151245e-10 7.01754264610425e-11 
0.01890765920902106 0.00360214005587376 -0.01126915152146926 -0.01359067794716041 -0.003136488905372719 -0.01276080893562597 0.004112867941575757 0.01059421201225352 -0.005828801018044137 -0.02053303899478284 
4.118519720519852e-11 -1.0124218735903e-10 -2.140129060233662e-10 -3.505453853312777e-11 1.215391815183851e-10 7.853645990794578e-11 6.819421660531025e-11 -8.647643008551746e-11 1.00723890397e-10 -1.602246212025491e-11 
-0.002933630882917945 -0.0168773797371067 0.01244599442998128 -0.008330814712131587 0.002605601644279545 0.0146645543769308 -0.01811274434029693 -0.001251629464694335 -0.0117965062219618 -0.02848337866381924 
1.365137161442772e-10 -1.694217674885071e-10 7.245760152407525e-13 -1.613505434566862e-11 3.754785135655414e-11 1.040882413516963e-10 -1.789703243844631e-11 2.430297730058967e-11 -8.055191055695862e-11 -3.21224508816182e-11 
0.01152071132380457 -0.01442647572325477 0.004332617131055487 -0.01423182258222499 0.009464435750006423 0.01727762209876105 -0.02998407842877322 -0.006466743502031087 -0.005346792508875565 -0.01326266583724473 
1.244020435135246e-11 -1.539000189247416e-10 4.173613803177049e-11 2.993048346497664e-11 1.054586085904929e-10 -5.176130817605553e-11 -4.808127268205762e-11 5.468375202911655e-12 -2.893889260226741e-11 1.167370881423702e-10 
-0.02300663328412431 -0.003265504302927178 0.002308851764025728 0.009616862843892217 -0.0004677292103761683 3.538769653982339e-05 -0.008619346592380237 -0.01120254686953667 -0.001086210747566848 -0.005006369653967586 
-2.334477617973615e-10 8.497301421623008e-11 2.316765534813859e-11 -6.065486101804136e-11 -8.761218747906696e-11 3.603599220900551e-11 5.845189495746901e-12 -7.249388616542962e-12 1.957792260888436e-11 1.103982609302999e-10 
0.00745825589634412 -0.008771389568648449 0.01441031643022317 -6.132278828898778e-05 0.01210714779246676 -0.00968166928269144 0.005896176852794028 -0.001594061112136232 -0.01662549962140753 -0.01854095353861125 
-1.230387552066073e-10 7.985641032454747e-11 4.536558000272497e-11 -5.808683265818364e-11 9.673951185286399e-11 4.685928463275706e-11 -2.388001671179486e-11 2.062757067389868e-11 1.7522197158206e-11 5.052304564416207e-11 
0.002388749871319878 -0.0095117322392239 0.005866563680233311 -0.01521995939379094 0.003988459022437231 0.009452040426056152 -0.006057089490645402 0.008284853157299181 -0.001031611585672452 -0.01676797419441269 
-2.770034221297675e-11 8.167373316729954e-11 1.278590641291797e-11 5.109679706207586e-12 -3.834778950842426e-11 -4.136199344364164e-11 -2.316568760309063e-10 -5.290706146318871e-11 1.619139850858927e-10 -3.817651883429794e-11 
-0.01256017832703821 -0.001542737121178721 0.004192136311425074 -0.00587955607467898 0.009657419951329051 0.01599394426919148 -0.01867778276786352 -0.0075360545385117 0.01042269385112704 -0.01930812985781312 
-5.306424954982987e-11 1.45844554547828e-10 1.254571847599297e-11 1.381141838930985e-11 -1.277533110108025e-11 -3.910861109425585e-11 1.766311615105364e-11 -6.263695552188805e-11 1.114695880746948e-10 4.56527555327712e-11 
0.002449381168759124 -0.000270642367161785 -0.01035592729886775 -0.003866792541948613 -0.004590448316079149 -0.002689853945729236 -0.01961118367438756 0.005089405992291933 -0.01402842170340189 0.006293556614535675 
3.653659743989793e-12 1.310706165885049e-10 -2.195696854127705e-11 -4.542634255917219e-11 -1.084887657161371e-10 2.478646772585135e-11 -1.965822225787565e-12 1.65014069660761e-11 5.006232484031896e-11 6.799712585873021e-11 
0.01334359016426056 0.006275176344101921 0.001270862737759371 -0.006191643917622438 -0.0275962718539525 -0.0004097602674603916 -0.0005869839987915784 0.005880059860341839 -0.003411808412249662 -0.0253365446152113 
-1.809005202433492e-11 1.313089596659797e-10 -1.65918955848406e-10 1.491751585181934e-12 6.40814205525504e-11 3.296575757472648e-11 -1.347641004220751e-10 -1.74716071123901e-11 2.92842269222448e-11 -1.615148662839273e-11 
0.004667495505481539 -0.003513334935629327 0.00404602024739264 -0.0101632595354538 0.01305012739656509 0.003969957371687897 0.02550291946170653 -0.01102777081013987 0.000895446516747538 -0.02746565276673622 
2.452009498132348e-11 -4.990265345431476e-11 -4.716245821912372e-11 3.02579243044702e-11 1.128217960974015e-10 -3.686253162297726e-11 -7.167618821481265e-11 -5.902470221466502e-11 8.503884437811598e-12 6.610336835642738e-11 
0.005339478584508439 -0.0011018386889195 -0.0009774286778794947 -0.009059342908285223 0.02628791764700385 0.0140619946990647 -0.005478060207761014 -0.01390662362926765 -0.003993229469897869 -0.01036939991961379 
-8.268007917739787e-11 1.350140721825286e-11 -9.642374712858589e-11 -7.448908211382915e-12 2.697930919104544e-10 -1.423361956223275e-11 5.484429538030487e-11 -4.466549552724632e-11 8.220704477336337e-12 2.372053414196174e-10 
1.466450591133141e-05 -0.03123713006530113 -0.02473407986501466 -0.006503806238776223 0.009894082716820929 0.004967549838275317 0.006906371040031655 0.007051990566555924 -0.01045759679033294 -0.003567463200809545 
-4.901429728920088e-11 -2.149184528261993e-11 -9.266938555452852e-11 4.891476509287499e-11 -2.384146505847283e-11 -4.593707029764356e-11 -6.634733537676796e-11 -3.47680527981526e-11 1.624335158804817e-10 -8.172905823805584e-11 
0.01185331453360414 0.0003149083519551907 0.001044828170532953 -0.004163436233521419 -0.01862024563589513 -0.003047058812209297 -0.0009870271422847405 0.007378979760597548 0.004137140189255282 -0.0304885255681183 
1.581622494896683e-11 9.215348218343044e-11 -7.190897260750438e-11 6.092146759124629e-11 -4.104476204748469e-11 -3.567624016255168e-11 -7.69142435986362e-11 -2.052617120725706e-11 -1.238035669879871e-11 2.217255496894241e-11 
0.0004848931729488106 -0.003156733680836218 0.0113476356825337 -0.005304038361862347 -0.003885160913662142 0.007421689047309783 -0.005263933071201853 -0.007293022607900725 -0.005481970030200113 -0.02326474644974312 
-1.896256212733663e-11 -1.039822644172449e-10 1.481985979791119e-10 -2.779214583480039e-11 5.764446134293423e-11 -5.06903526402863e-11 3.616279088240914e-10 2.174405609624959e-11 -3.986885259284354e-12 2.246185521752679e-11 
-0.007719429044206108 -0.004625071034701216 0.01187447389958779 -0.003425795774691254 0.01237877867238623 0.00866459106712719 -0.01294538505017597 -0.01469966232049294 -0.00600339930416858 -0.01866522361725595 
-1.943761578860078e-10 2.069809969700122e-10 5.548371618943015e-11 2.702799497569442e-11 6.706570322627819e-11 -1.793491349222746e-11 -6.226587920913753e-12 -6.775462820549491e-11 2.591037998904972e-10 -2.714105464158793e-10 
-0.00223958369433744 -0.008584447425721273 0.001180755352343631 0.003312940228428245 -0.01652301718493534 -0.001999002635565985 -0.02555186312020357 0.005030757107343408 -0.01568093147526747 0.004207834744971761 
-2.78056290430742e-11 4.012086188190872e-11 2.028910989202216e-10 -8.696808043296765e-13 -9.523872419028994e-11 -3.764510586047993e-12 -7.941176086023839e-11 3.346818118790954e-11 -9.175879920534854e-11 1.055719126174652e-10 
-0.004642914248462623 0.005762508940386168 0.007518585023977944 0.00579725935649111 0.00622063697344466 0.005883701209994482 -0.007110535644068784 -0.006047220440075459 -0.00898456287692128 -0.002302383116846273 
-7.718778918132973e-11 5.322026554022427e-11 2.736599740817446e-11 2.03749353810676e-11 -1.651063610454364e-11 5.246493611051346e-11 -2.398970462671911e-10 3.450417303221995e-11 -3.193993494484109e-11 1.201749616839823e-10 
0.00784131737678569 -0.00778938625057362 -0.0007216715897082604 0.01071314874665588 -0.0007739555646579064 -0.0003517067761736604 -0.02089276971710378 -0.006142478930613737 -0.01440288217363924 0.003109208347186827 
-3.037604079008646e-11 -3.128496395701881e-11 4.391156868092468e-11 2.945790137717595e-11 -1.396998837671119e-10 8.993473313351013e-12 1.519205067520326e-11 7.167271158208895e-11 9.451554651705037e-11 8.595857358201606e-11 
0.006804707729362678 -0.001322037525866161 0.004155058776811517 0.002593812048858512 0.007595712675147888 -0.006489554626353711 0.01214542916687014 0.004653913237555652 -0.03365016614137616 -0.007094539029587745 
7.330176431316322e-11 8.834155013465972e-11 -1.466928084211832e-10 -7.742013228266434e-11 1.189357495131628e-10 5.904082663632941e-11 -1.30803315205375e-11 -4.128011856466866e-11 9.011611462565724e-11 -4.657596221158981e-12 
-0.008044776726211374 0.02208278529465134 -0.005901192816876163 -0.006625798517968049 -0.01963115926607883 -0.009656537983600286 -0.004954683371042184 -0.005755396415336315 0.0008075946761886101 -0.0001495540462667246 
-6.622790878162055e-11 -3.066411777568478e-11 -5.687996360107765e-12 4.783686350770063e-12 -1.192691037744561e-10 2.499374168508106e-12 -7.370907446603339e-11 2.41305223027361e-11 1.409010994845857e-10 4.329839560679774e-11 
-0.0212219425580336 0.0068794313467865 -0.004875836229385323 -0.001048763309953256 0.01426714225098346 -0.007010290261651425 -0.01545503215250706 -0.003189066618306734 0.01752471675966743 0.007779636528024815 
-9.126790512150373e-11 1.140178765487972e-10 -9.714229496350885e-11 2.121066749221859e-11 -2.160430531526198e-11 1.743567818848945e-11 1.238477258196215e-10 -7.87385296335701e-11 -9.002445829765743e-11 1.148486780410838e-10 
-0.004328459265863954 -0.009483767242245955 -0.005432445476591934 0.007052332534315815 0.01826586543573527 0.00221249180382728 -0.02605316522618191 -0.006486662155222999 -0.007501098809222791 -0.009855536647479518 
1.156017762802092e-11 -3.497964004848278e-11 4.31590568313044e-11 7.943766790469637e-12 -5.509739026853352e-11 -1.701599842765178e-11 4.231488113651283e-11 2.106917633726283e-11 -5.465943039145908e-11 1.624547284867244e-10 
0.01066097935693166 -0.01160063638185618 -0.01216152308251666 0.006140466279317431 0.01853116023571121 -0.01069767242288903 -0.01858771373707038 -0.005223602836244496 0.003857155029574943 0.0097269594402268 
1.07625900504399e-10 6.453405292280735e-11 -4.411941638877856e-11 -2.718726851799009e-11 -7.074328720172566e-11 -3.334224685454051e-11 -9.118910735364881e-11 -1.360527761361774e-11 -5.142800979549533e-11 9.818376641587345e-11 
-0.0003330084673844605 0.01664252357997108 -0.005581867316925699 0.001891797584614865 0.004584388738372591 0.009087384834066955 -0.0006624938679642029 -0.01100942370357194 -0.008761186866887019 -0.002987344103471506 
-1.352558122111283e-10 3.691468297510135e-11 1.255983056596147e-10 5.329885606558944e-11 7.963212628247312e-11 2.821493878016768e-11 -1.174783536861015e-10 7.721066942947472e-12 -5.783654246181586e-11 -7.355399507001657e-11 
-0.001320991390688187 0.004008044405579457 0.002885875538142861 0.002481278942042147 0.001049170551860924 0.01723218603316163 -0.01530491610499087 -0.009348982391138684 -0.008672663204227497 -0.004913417979013431 
6.064902304438106e-11 -1.359971683764565e-10 -1.327563343817977e-10 5.93518401516356e-12 2.098215138283513e-10 2.582938747476566e-11 -1.401004400095031e-10 -8.250542381120568e-11 -1.129609857948451e-10 5.458876584272224e-11 
-0.007093735404508751 0.008456683319133905 -0.00482639836812342 0.002949357240063838 0.01853420046179835 0.006295502737408445 -0.003012934923513952 0.001118862641535894 -0.00647785661281341 -0.004010177347678778 
-1.279470389555499e-10 9.897617832223775e-11 3.490026542488377e-11 -1.935199319696038e-11 -1.988124390489737e-11 4.543737233006698e-11 1.103908414896535e-10 4.146402570910031e-11 1.562399114308044e-10 -1.627489422948601e-10 
-0.00254951654735674 0.0007503827772390061 -0.01596290428529618 -0.005128389786428255 0.008802887320237382 -0.002109581205513727 0.01268104981776408 0.006562868692450348 -0.02140721360802496 -0.006018196183146936 
-2.765862852369559e-11 -1.110642550762294e-10 1.710594633808866e-11 -6.834147473276601e-11 7.898722767742479e-12 -5.293175290682408e-11 2.806962566555556e-11 6.510253443389528e-11 3.900659515186256e-11 1.200683870207165e-11 
-0.005344043332764611 -0.003988243261548906 -0.00952737800976897 0.001907403000826226 -0.01157097548080553 -0.005797435979579329 -0.004624866797526556 -0.005313274531309813 0.0086419330327206 0.0005306026294470034 
1.928944990437591e-11 -4.488587151739936e-12 2.371620077620767e-11 5.540949568692283e-11 -1.170793048767375e-11 6.721601159374814e-11 -1.041616398771131e-10 -2.599793186290196e-11 5.478269601483699e-11 -4.380472621826821e-11 
0.0124812708269276 0.007905587349977948 0.01128776979316164 0.006872587231542211 0.007348038959622186 -0.0009396605376385725 0.00774500632382766 -0.00573766549634302 0.004328554477634969 -0.0215322339484399 
1.373343854175968e-10 -1.399913002481644e-10 8.55137133150736e-11 -6.156844159451582e-12 5.316733301908235e-11 -2.658808791515878e-11 -1.047416564626997e-10 -1.091855430384705e-10 -1.430807886403556e-10 1.514503707116179e-10 
-0.00157890035573774 0.01646950899465586 -0.001358977993023868 0.005480996938781274 0.007214581708261883 -0.002008084878717924 -0.0219302353408957 0.008243703365877326 0.001736802594580811 -0.01804918600955855 
-2.587273845616547e-11 -1.396098291150087e-10 -1.173383117040944e-10 -1.305336074178615e-11 1.525892496605094e-10 -1.013115081388732e-11 -8.609898726505232e-11 -3.560787348085937e-11 6.711188674403291e-11 4.288227342231226e-11 
9.882060475479966e-05 0.01278459889173457 -0.002376600014286911 -0.001625895112801713 0.0005749549287742914 -0.006319226298089346 -0.004265239350317641 0.004424375423559693 0.004017507209731195 -0.006289674733799377 
4.089138133192641e-11 -1.467876428052501e-10 -6.923259000148188e-11 -2.013862864182009e-11 1.94760812378782e-11 -4.615959062051619e-11 -4.565948751633197e-11 8.485113533315064e-11 -2.636816780562134e-11 1.221047397189619e-10 
0.00328010369079607 -0.008229925247628932 -0.0233010879921482 -0.0008763882888438154 -0.005418599168217643 0.01130448172053149 -0.001764837392050637 -0.01466844070815357 -0.007636089358187369 0.02356888293582698 
4.891006156049581e-11 1.336034377616722e-11 -1.706948373742288e-11 7.973107516486341e-12 -1.761743410114691e-10 3.514009781354516e-11 4.369911430742898e-11 -1.966807855618187e-11 1.581514436368861e-11 -2.883366099358554e-11 
0.02230123148072127 -0.009344326327139054 0.02990149756319794 0.003217400137999149 -0.02382257054783053 -0.008779871805987811 0.002695055071338639 -0.01040817296029562 -0.001965446180942658 -0.00536788432249151 
1.065604513174729e-10 -8.459632857770049e-11 3.076043736668702e-11 4.209156534079657e-12 -1.499366845999855e-10 -2.294819912485772e-11 -2.469050539547769e-10 2.318002896180883e-11 1.766218891865341e-10 1.359193968754243e-10 
0.007501978009254663 0.0007005288921572108 -1.92278216817532e-05 2.328946510459466e-05 0.0186337097478257 -0.005355671835992221 -0.01131679673304334 -0.0005993344636911042 -0.006182486508221374 -0.009173834274712012 
8.827214970476282e-11 -1.024958314573955e-11 1.364425684135158e-10 -9.953745008157853e-12 8.68082650068503e-11 -7.694742821696614e-12 -1.210449706068968e-10 -5.564120235963737e-11 -6.514267114695108e-11 -4.028632432255476e-11 
0.008288972662301646 -0.01357108717180592 -0.0307820189387765 -0.005114881405013975 0.008322923863440938 0.002306364392307574 0.00301668289983613 0.0008368692615675997 -0.005990769400678292 -0.006572570195634705 
1.153148680137255e-10 3.778782775765838e-11 -6.48127674505282e-12 1.304412373806581e-11 -1.463831990860489e-10 -5.175126930498571e-11 9.695912804579551e-11 1.309709445913174e-11 -9.976770233490862e-12 -1.189257336048595e-10 
0.01013094969983161 -0.009528613909829307 -0.02205608820796779 0.007022801385606366 0.003685093387199692 0.004241862909504645 -0.001848426984745531 -0.01772936897867637 -0.01078392781689282 0.01506715873242812 
-5.231696648272964e-11 -1.102081967758336e-10 -1.023486691207291e-10 -2.14297929840841e-11 4.018947873093383e-11 6.09656581974204e-11 3.241222046616648e-11 4.310063607330518e-11 -4.895192524034052e-11 -8.214075407232793e-11 
0.003588743953578751 -0.009993223018075859 0.01352941480664394 -0.0008064028736973586 0.005174890673427065 0.01432733124876967 0.004499393586226532 -0.02074467391683184 -0.01553191120982724 -0.02028195456449584 
1.027046543111484e-10 2.884582097922652e-11 6.893125969352288e-11 -1.7621120234687e-11 -1.742760259522388e-10 3.954384856200963e-12 -2.357430605119297e-10 8.280296208616722e-11 5.846799085295407e-11 1.939344910885904e-10 
0.006178850109408123 -0.0003435794231544439 -0.007941861263040606 0.000175215574489354 0.005702218437231211 -0.00704008157678498 -0.001618202983522582 0.001078178122883132 -0.002712511130257783 -0.01940501277453013 
-6.515971464559388e-11 4.359555410638849e-11 -2.912790262331877e-11 4.416550893235678e-11 4.808191043640582e-11 4.138749468130847e-11 -3.887278903977373e-11 1.374601612040066e-11 -3.083692448580701e-11 -1.726751401982831e-11 
0.00895505934198969 -0.008577057237719137 -0.008100710874961196 -0.003065924730327792 0.01009311256201962 -0.005779482632824617 -0.003042115158415745 0.01055469211604209 -0.02191398176129145 0.002073313595208574 
1.047394985062488e-10 -1.33581863177844e-10 7.561945823567446e-11 -9.818927190901523e-11 -1.533640174481755e-10 5.110162139347295e-11 -3.071968783853911e-11 2.413244939850064e-11 2.665758517651708e-11 3.280860127629994e-11 
0.01636865249583496 -0.004592256629926255 -0.009725945339652698 0.003911844387412165 -0.01757686065442626 -0.00305490169346822 -0.008361874930825349 -0.009070824546005043 0.004289858197399183 0.02365200482529209 
2.316715619726326e-11 2.187136644405925e-11 -4.311855310391252e-11 -5.553448212544656e-11 4.443354063139065e-11 1.672004391006632e-11 -9.5578901893243e-11 -5.334452795278715e-11 6.612149930654713e-11 9.1817622746875e-12 
0.01489371206337481 0.003618147662586434 0.002249220527264002 -0.001581456603234335 -0.005447283448631376 0.006424443587158675 -0.01078459274922065 -0.01849313781688893 0.001145369611924857 0.002191947356374856 
-6.097690619451751e-11 -8.442060272901847e-11 5.117730147854675e-11 -2.343913803136377e-11 -1.019604729908113e-10 4.007097460074005e-11 3.503071583855339e-11 -4.9490006212028e-11 -9.459663407608859e-11 -4.681963935445061e-12 
0.001822269806036289 -0.00648676581637324 0.001906101896904441 -0.01024596009927371 0.005895975463812793 -0.0127587689358647 0.003580615473562797 -0.006535785856466042 -0.01472473495899022 -0.0078030819907707 
-6.301499016907592e-11 7.298639890463461e-12 1.148335591231537e-10 1.812563316695451e-12 2.860623602331949e-11 3.732546208491331e-11 -6.563337983469976e-11 -2.562461189761653e-11 7.210643221251407e-11 -9.46293676882544e-11 
-0.0146582477774912 -0.005313322585943863 -0.01194091438473239 -0.0121817911687927 0.01145357300770317 0.001013836373309459 -0.02053789105656202 0.008632552665829272 -0.005935205094851579 -0.008609322873283247 
3.232868259685237e-11 -7.581021226556131e-14 7.943510698621343e-12 4.262809768527795e-11 -3.709970998343818e-11 -8.600416598464414e-11 3.577093466414945e-11 -3.110792916501229e-11 -6.581079945221511e-11 1.102932303740813e-10 
-0.008758914085119375 0.002764687298268413 -0.006555258116843452 0.006291196588578313 -0.007176633954445902 0.01243891480349693 -0.004292055669444354 -0.01452172136243641 -0.01031872853652007 -0.01555854430064883 
8.793452156055642e-11 -1.594844709832803e-11 -3.668273651599408e-11 -8.612229170446918e-12 -1.003315334679439e-10 4.972360558617803e-11 -1.052299326931915e-10 -5.474967344476966e-11 4.732434318417909e-12 1.179446920201072e-10 
0.02165693268457516 -0.01550824472972662 0.0005870195277335148 -0.005283952142646143 -0.0068472792058169 0.004589982669876146 0.004226805209952024 -0.02031949286337474 -0.01381313571742443 -0.004279340814035037 
-1.019763741481641e-10 -1.952915183648005e-10 8.578392791357558e-11 -1.082182363605785e-11 1.740246229092775e-10 1.494091175003203e-11 1.035477797247056e-10 3.085174254911231e-12 9.897774372880637e-11 3.081192952835549e-11 
0.006030557205442621 -0.007704379490830931 0.01360586381306211 -0.00911507102800516 0.007478609056238394 -0.008608540724049339 -0.0007264880160700194 -0.0006638601215621195 -0.006441955946632397 0.008119429690776735 
-5.178765772684993e-11 1.190832652286551e-10 -4.947515252980616e-11 -7.607458142966923e-13 -1.642384010296948e-11 -1.511485386520307e-11 2.346193363278503e-10 8.149341859395667e-11 9.654516007323344e-11 -2.5112965067767e-10 
-0.00444121053331004 -0.001537800755730269 -0.009426901723025323 -0.01119308453571307 0.003972369000580712 -0.001851920494234845 0.002488807312798922 -0.001457833671361397 -0.01167032327373088 0.003381865921314165 
-1.431411454973426e-10 -4.671714250606463e-11 1.084470503224415e-10 5.491353126957325e-11 9.644977992312895e-11 1.800377635376587e-11 1.254075634877065e-10 8.88308286889412e-11 -1.210369341392074e-10 -1.587530788978836e-10 
0.01804575123653074 0.007921877976685754 -0.02308576000830955 0.004097358072888315 -0.0009194036164177281 -0.0003486532530360092 0.001911125043863095 -0.01973331470641025 0.008990587521375328 0.001543781475017677 
8.880306732228858e-11 2.481818584058283e-11 1.36159831543511e-10 -1.458709736547573e-11 -2.695956883006131e-11 -8.96988199144482e-11 -9.254351690018499e-11 -3.619556016495135e-12 -2.773089781781906e-11 2.406495539896718e-10 
-0.005172873804120467 0.005808962839466784 0.005743540188801174 0.003025725438858687 -0.002541869761503794 -0.002541625747563844 0.01848551307742831 -0.01984068376737759 -0.01558492334215728 -0.004667778738219658 
1.676448648489932e-11 8.802488492542294e-11 -1.708094516538438e-12 -6.287111995281439e-11 1.826906579391406e-10 1.530804060182174e-12 2.364155819355614e-10 -6.164914083672833e-11 -7.855745360748526e-11 1.154436222259056e-10 
0.009859797729610008 -0.01874480338585801 -0.008410892266294144 -0.01531529440890177 0.005553774759308874 -0.0146283583634688 0.003024855723124563 0.003367596220343397 -0.0119253660035444 -0.001689562485636018 
1.574008550503239e-11 4.133134947674729e-11 1.838115242914897e-10 2.990238759163354e-11 1.382616549895501e-10 -1.575617807360815e-10 -1.674959000636416e-10 3.845001388088125e-11 2.247361680605264e-11 -1.368067336315017e-10 
0.00947243178246393 -0.01602524297306172 -0.01453556454353782 -0.0187507145042696 0.00264654528862416 -0.0002330945254331837 -0.0192840031275889 0.01150257131209378 -0.005507579475881267 -0.009264724669667018 
-1.077821978490192e-11 -1.470792692832471e-10 -1.589101738222889e-11 -7.877663816101311e-11 -8.446737266430159e-11 2.076487153316819e-11 -1.251715323242439e-10 -5.512385022306285e-11 1.230627172562678e-10 3.789836333334088e-11 
0.00469360260649592 0.002715753893977323 0.002094505077220788 0.01099928505732705 0.0128320927894687 -0.01229987066271227 -0.006749572214747214 -0.02063136747288951 -0.002567919302987411 0.008910795838390891 
-8.109366171391769e-11 -3.328151191630673e-11 2.161058491303398e-11 -2.354974194909672e-12 1.640061009685911e-11 -9.377793410645611e-11 1.770539795336445e-10 -3.024624977964458e-11 3.605418153425081e-11 -5.033430325162275e-11 
0.005792165439558732 0.004990061757683258 -0.01103955623493679 -0.0003861046547671169 0.01997626147798188 -0.0008546017490627709 0.01871084955795075 -0.02268703862809825 -0.0009629967871525795 0.007249184395264139 
-2.70996081356225e-11 4.021133935698315e-11 1.809272816052967e-11 -7.530161425095555e-11 7.055944053875926e-12 -1.690775917433822e-12 2.318295221237904e-10 -3.606996214332292e-11 4.906544854493388e-11 -1.152578799997327e-10 
0.01789966760368946 -0.01886112744751537 -0.005197649943351383 -0.02074028313465706 0.0009271737671405815 -0.003316552715704336 0.01619383414591169 -0.000608981247778857 -0.02218618786619178 -0.00335467217679985 
-3.660131855238459e-11 -8.467322895445453e-11 -1.562697980650416e-10 5.266374247614319e-11 1.246178362257826e-10 5.855411655669063e-11 -1.509771070544366e-10 4.032155024423209e-11 -6.469571613224496e-11 -1.907465061460573e-11 
-0.003640564417374532 -0.02237855230737099 -0.01278851763373764 -0.01816804218808061 -0.001303511959066195 -0.005374401108283684 -0.009793782239505807 0.003837031599141475 -0.005838923401365848 0.009126675649968816 
5.674079260188738e-11 -2.437092240513661e-11 -1.242836506710929e-10 -8.329732199821858e-12 -1.493626969360788e-10 4.150529208447185e-11 -1.732708271158495e-10 2.519021980987967e-12 1.763274297442168e-10 2.923085322489812e-11 
-0.004518249560276271 0.01729476135946895 -0.005671144401702403 0.00876800783576193 0.003508206807495882 -0.0003845199967460299 -0.02040126586275565 -0.02004707099883503 -0.002527823584345155 -0.02410832146668163 
5.037165736703457e-11 4.989429197756028e-11 -2.239944407328035e-10 -1.452033173211415e-12 1.941438640440773e-11 1.266803834365458e-11 -6.92707634488415e-11 -6.005511442575322e-11 -1.253759055223816e-10 3.201232302799733e-11 
-0.01139711440096232 0.006361512999883205 0.00761537019136068 0.009166166009793798 0.01034398368091408 -0.01953517715438979 0.006180147168652613 -0.02114523846994107 -0.01104755841155718 0.013589702341499 
-9.912187596776403e-11 2.210170184317593e-10 7.983871577704321e-11 -2.702434575239615e-11 -9.869414290497056e-11 2.256998797610998e-11 1.619449434205517e-11 6.373608916519937e-11 -9.649596596834748e-12 -5.671202751162166e-11 
-0.003637612246873841 0.005295144347476731 0.008258902880962817 -0.006494117315398936 0.01038124816270333 -0.002677963484363497 -0.005843551077220376 -0.0004451467253960905 0.007929372636465181 -0.0001219353159447273 
-3.899209723799768e-11 -1.20391911628323e-10 4.088398875455991e-11 2.149593309790356e-12 -6.289875518417831e-11 -6.11169708186127e-11 1.326985513600106e-10 7.802129647727213e-11 -1.595266626455755e-10 1.134892327599607e-10 
0.0170380313737993 -0.01018754437697881 -0.003447362124131253 -0.01280838560399716 -0.005902046477228557 -0.005197767095786816 -0.009416566424051767 0.005393862454599807 -0.007134082516158251 -0.01222978800798013 
3.338990679032254e-12 3.52149025514395e-11 -3.894572111157124e-11 -4.817674659838401e-11 -1.209833736203652e-10 7.880362263886332e-12 -6.240867435807097e-11 -2.589225907079181e-11 9.86536787296251e-11 1.091128292653811e-10 
-0.001233795640062171 -0.02051134752553649 -0.01098991713974326 0.003367694038289886 0.008588428386474941 0.0004544835649672598 -0.02017011688432532 -0.01328611093679005 -0.005694036249946683 -0.003781702614453425 
-5.226171903147861e-11 -3.264816595040804e-12 -8.489266515547005e-11 3.243895705526558e-11 -3.839485189802939e-11 3.56720751353504e-11 3.514433231086879e-11 -4.381112033839191e-11 3.961003537889654e-11 -5.206646141341764e-11 
-0.01605820902792228 0.0003147606044352942 -0.01361760183346324 -0.0002571163466199528 0.01168709290596333 0.01613825026001103 0.004099654222833166 -0.009097283319113825 0.008429020680922373 -0.01734661550889649 
7.816423094949703e-11 -1.641426898076118e-10 -1.808857401803789e-10 -5.629586931633923e-12 5.68198736073478e-12 -4.791715700678867e-12 7.365544599579169e-11 3.807230398533031e-11 -8.698612080230879e-11 1.554424747939205e-10 
-0.002485786033974246 -0.002888147574393423 0.007158553766385082 -0.00983062032036598 0.0003387641645857868 -0.004218078723102241 -0.003361024394790836 -0.003180517150306762 -0.01233283985130732 -0.002083866046158003 
-7.720666567212287e-11 6.192328229109317e-11 -3.858591100557616e-12 -2.629567648295204e-11 -3.868265269369841e-11 3.608510015051509e-11 2.507819805403152e-10 -3.923316488774247e-11 -4.99553260914512e-11 1.096984498118342e-10 
0.004163652713917574 -0.00643043498681507 0.004140906928367722 -0.01201395751242352 0.01033794870687821 -0.01486129799168566 -0.01073887711574804 -0.007877781548047601 0.002709053710856112 -0.005863788588623005 
9.480875708190715e-11 -2.986925344558885e-11 -6.803648981385152e-11 2.257850388344586e-12 3.50490472449212e-11 -2.178411524960294e-11 3.387415387685014e-10 -3.67043683464185e-11 -1.248324208437586e-11 -6.155630217424842e-11 
0.01130273034334349 -0.000983173573603735 0.001773257286663299 0.003273269963321375 0.01695810485189442 -0.01320041474585859 -0.01637009657931218 -0.01668674094522184 -0.001085261002356061 -0.003373833071676241 
1.76559787453432e-11 -7.529784523059818e-11 -2.278440008769006e-10 -3.134902238258691e-11 5.141073452905882e-11 -2.217416169654586e-11 -9.533563338730045e-11 5.402643106228677e-12 9.500858855163711e-11 1.398972423703233e-10 
0.001678125911023701 0.002593581943996175 -0.003921213582020662 -0.006368251497018168 0.002288006191175725 -0.01047177867123877 0.0001929782193555698 0.001040032051654059 -0.02234551599458487 0.005095980564671699 
6.127948038340821e-12 2.606767090196095e-11 -3.097099887821502e-11 2.851021628216507e-12 1.62379676463319e-10 -1.648304530725182e-11 -8.247958343295134e-11 4.4375343335051e-12 1.0176344430617e-11 5.247166613506864e-11 
-0.01027390182218179 9.932080860048505e-05 0.0007649867210204894 -0.00536821350998329 0.008030521419308202 0.004003005898827647 -0.01765348810236163 -0.007136711001024332 0.01692908560635067 0.00277833090061041 
7.402116269282503e-11 -3.527673885560471e-11 1.098330028621104e-10 -7.686201423018607e-11 8.215544417868733e-11 -1.377275589603746e-10 7.222928879739686e-12 -3.115048956300209e-12 -1.376736350545465e-10 7.669801739384062e-11 
-0.006438236085058086 -0.0001333784877792202 0.003123238694887889 -0.009421860347710424 0.006835516820021524 0.009333507745182186 0.001646980128259641 0.0007790363407327718 -0.004498281106111777 -0.009934157071906136 
7.144924684357862e-11 -1.438982421832399e-10 -9.121483658703999e-11 -9.049401059977278e-12 -1.526890865341544e-10 3.714560932183026e-11 -8.362027053399168e-11 -1.678075373093406e-11 6.207060306530677e-11 1.507362531601897e-11 
0.004589223134519142 -0.006370453452049967 0.0002636976909950235 0.01275946186327636 0.01316746007199154 -0.003747507354650461 -0.03117163466514807 -0.01301504824385286 6.430942127461947e-05 0.002457543649770863 
9.274912020700709e-11 -2.479874803310287e-10 -1.281376316366086e-10 -4.639067672184524e-11 -1.252165438385038e-11 -2.952658378349988e-11 1.112453911731802e-10 1.060561222678498e-11 -1.845706440871784e-11 2.735203601906549e-10 
-0.00634044946626951 0.001278226749131924 0.00336805717091928 -0.009218766174090124 0.005240699122407863 -0.0008371212774726141 0.001872715204714136 -0.0147951442577815 -0.007444826687957474 0.01263935596279282 
-1.048148588088948e-10 -3.98020000112443e-11 1.719009786716258e-10 -3.156169151527224e-11 -1.105589781848736e-10 1.003171309346094e-10 -1.09581619823654e-10 1.885892317840138e-11 1.018232633152215e-11 1.380781364695989e-11 
-0.01285814481495144 0.002694688715473069 0.009869282744250852 -0.01349018030837035 -0.01019526063586176 0.008580510432750996 0.009913275525196162 0.0004056148243091426 -0.0003122136174212521 -0.01075652043448504 
1.052571738461445e-10 -1.503005043462038e-11 -5.481678171023368e-11 -8.245553682149755e-12 1.429535780747089e-10 -1.356253685786928e-12 7.000791789605471e-11 -8.042079036143041e-11 -6.286009050047425e-11 -4.437420310839151e-11 
0.01545895984622382 0.007611083541440295 0.01242793266407334 -0.004980881989635345 0.003012820265918404 -0.001316756464953072 -0.006874412102737228 -0.006754202206985066 -0.006234728571083607 -0.01804893553075945 
-8.910043329863932e-12 -8.718659274753007e-11 -3.855499344243677e-11 2.350288885424565e-11 -5.406501728442315e-12 -7.98636890658333e-11 1.511496600814278e-10 9.5773334256288e-12 -1.459973627274778e-10 -1.775252135881764e-11 
0.02095168255131508 0.0007985303358439429 -0.009442281462289762 -0.004631360811932223 0.001359350677806815 0.002070374008222663 -0.01466544155211463 0.01433391576023664 -0.01721249064296881 -0.009336385258220897 
1.031181291247922e-10 7.973463619316081e-11 -1.936419780560661e-10 -3.619373573686412e-11 -4.752347665752135e-11 -2.778297986349474e-11 1.186163607166309e-10 3.321555718871385e-11 9.171468860904175e-11 -2.482187042536617e-11 
0.01730365645506186 -0.00639504524775616 -0.01472624039387145 -0.004363354544406682 -0.0111024261672988 -0.001958526476520062 -0.0224606474079393 0.01057384654632616 5.282368745052867e-05 -0.01168938184479462 
-6.985115052140741e-11 1.575571526892035e-10 1.023251415429774e-10 -3.763516471359569e-11 -1.381927516356299e-10 1.193194074119528e-11 2.362668353175743e-11 -2.930842317118093e-11 -7.099945640729539e-11 -8.169999068013926e-12 
-0.009738061095252805 -0.009317279287435897 0.008807818528441303 -0.003247289801453237 0.01697293007440733 0.005592958923759659 -0.004706067264452398 -0.01535584601072932 -0.01086360303819598 -0.001364400847827472 
5.806237108378098e-11 -6.604830230239936e-12 -2.88603087151226e-11 -1.111621888829002e-11 -1.232976160343404e-10 5.43711076343074e-11 -1.823406026029419e-10 1.477354934282183e-10 1.072309136233282e-10 -1.935461447712917e-10 
-0.01488794748387225 0.02154998059333797 0.005071691877029391 -0.005330223045230191 0.01166131387102986 0.009836391872673638 -0.003021855457392897 -0.00964600271347946 -0.0006076022209002618 -0.02072078274945948 
-1.181331317400275e-10 -6.287733783576273e-11 6.993715316185853e-11 -1.31131052111594e-11 2.966318100619899e-11 1.97128396300599e-11 -4.243357592143894e-11 5.995010321406656e-11 1.379418918045095e-11 1.144259990967621e-10 
-0.001600798861247009 -0.002799723077473849 -0.01378933497332856 0.001335169013059236 -0.009678441432533642 0.004285556009802283 0.00112531084762698 0.004305283020767352 0.001432229938862043 -0.01053768399749029 
-4.205320080785372e-11 1.474669622506062e-10 7.927456003212826e-11 7.094039125889002e-11 5.46052439756109e-11 -2.149210498786846e-11 -5.588905616058003e-11 5.299440172679169e-13 1.268347441379246e-11 7.195487246337959e-11 
0.01823792700441746 -0.03820997511194772 -0.01327985176398122 -0.005213496003639898 0.00541316074150123 -0.01221817680117239 0.003312420882555467 0.004756415626482367 -0.01088982493636058 0.007371658799083481 
7.874639446243597e-12 -5.686499323831436e-11 -5.727505153007319e-11 -3.921947220665668e-11 1.225772603364169e-10 1.398583298263366e-11 1.734102288515817e-10 -2.279675924709475e-11 -1.1188234757939e-10 1.189495502489521e-10 
0.005832404566545451 -0.01101386724509629 -0.006152293641808586 -0.01441329361301229 0.02566182771635694 0.01600157897540643 0.0121764865576607 -0.009799333739155012 -0.005535752737416045 -0.02185591220161408 
-1.727753725145771e-11 -1.244216547420726e-10 -7.020926861325346e-11 -1.133540392483709e-11 -7.104167869622069e-12 5.551091780053535e-12 1.36223571154845e-10 4.221424686547335e-11 -4.294510828362654e-11 1.219564217488559e-10 
0.007291471764295582 0.02517347052374336 -0.0007420730443332514 -0.01333883904647122 0.01667524462309861 0.0002573532384587928 -0.0123809236412022 -0.0145760045448156 -0.005858978397799232 -0.01941957814910353 
-1.175496510543087e-11 6.489624492182564e-11 -4.403910675597403e-11 -2.354588634094521e-11 -1.813222882362854e-10 -1.813146928736683e-11 7.178152820570707e-11 2.039922751250088e-11 -5.509104653629211e-11 5.998275787116424e-11 
0.01651880647790826 0.002964537859265509 -0.001603832102920999 0.004307420669991472 -0.008524860474020625 -0.007705530562144565 -0.02583714160916206 0.00910286220810142 -0.0100493700813302 -0.007697185270995165 
-1.225297772473546e-11 -2.009502241917082e-10 -1.375260209714184e-10 -7.576343419800606e-12 6.632542363343518e-11 4.637390380768193e-11 -6.447748106674549e-11 4.035613573888781e-11 -4.945315733417852e-11 -1.882453252554052e-11 
-0.008080466922892221 0.002463499380248053 0.006788966684320922 0.004358703274143356 -0.01281791823429594 0.0008608301916368797 -0.007166018744769554 0.01688711620158642 0.006938673580339133 -0.009462514621230515 
1.367621394225249e-11 2.306141128884657e-11 -4.785495211615008e-11 -2.1277122113143e-11 8.952859296187121e-12 2.584254691980388e-11 -5.138724347325962e-11 -5.154136970019676e-12 -1.549983668983356e-11 9.087342675401718e-11 
0.002206268726549355 -0.02722163260632717 -0.00610282479314943 0.0009570178129185007 -0.005509618081572631 -0.004822915240080231 0.003134334331480829 0.006808170467652896 -0.01596736575188074 0.0272412177506948 
5.266901483197738e-11 5.725890336428408e-11 1.205594322488702e-10 -6.024408671658646e-11 -2.341096466461899e-11 -4.26171391860557e-11 -1.798283343941295e-11 -1.323011459218929e-11 -4.550810722897833e-11 1.177582440779288e-10 
0.01181758176563412 -0.01214802997564039 0.002016595319520603 -0.002182742415788744 -0.004537521510803039 -0.001371752862685369 0.0008054877966910365 -0.005419640679503997 -0.001908349176928904 0.01084381539898551 
7.488289883596738e-12 2.933998262910991e-11 6.760798853199179e-11 5.181840191684244e-11 -2.765874994340804e-10 3.271520249928341e-11 -1.776057187532092e-11 -1.595925232201751e-13 -1.055284402827477e-10 -2.842030774711382e-11 
-0.0003047447906880864 -0.002509202844445877 0.008102546215137138 -0.001508100961425247 0.000139340931393417 -0.005832528077327266 -0.00266659130751233 -0.005775884325758965 0.007300860330340575 -0.02020336777848294 
-9.492793419557381e-12 -4.052075560470375e-11 3.720303479451356e-11 5.608548999854952e-12 1.098923700818833e-10 1.811895860957193e-11 -8.508302724351118e-11 -3.554276514668092e-11 3.153195807570096e-11 -6.911078372156931e-11 
-0.008016786960394536 0.004728613104274841 -0.008658936371933155 0.002044393331395495 -0.001682171895254835 -0.003164498982221337 -0.01494561381866407 0.002902677105974839 0.02196706166624816 0.006523715224522103 
1.081499266198512e-10 -3.280347174283887e-11 2.298186449437241e-11 -7.063753270238911e-11 -3.427210831026236e-11 -6.10832548672121e-11 3.304207796925712e-11 -3.342107115451109e-11 3.210636105311352e-11 3.88069310770894e-11 
-0.01156043097491871 -0.00645295145851623 -0.01280066479438102 0.00938829337168209 -0.007555938390100444 0.001349587709605892 -0.01747269194029406 0.005634275723567461 -0.004092072077522475 0.002909059005765201 
9.409264420384065e-12 -3.913308860315369e-13 1.792986897052952e-10 8.704241283727191e-11 2.406804999441196e-11 1.682291714980157e-12 6.825499117429313e-12 -5.955037160214356e-11 2.823260748736635e-11 -9.971210743031832e-11 
-0.003077452158405751 0.009486148623593762 -0.001309554590412775 0.01050326819942024 0.002426368052118343 -0.01486163800220254 0.01281558338480192 -0.002847950862173152 0.001904232434444441 0.00790456545263539 
2.250192512106533e-11 3.146357059292957e-11 -2.084268515455467e-11 -6.040453955441304e-12 -1.820347649779517e-11 -3.914133254147835e-11 -1.505541494715843e-10 4.048707700070202e-11 -7.505651891669005e-11 1.129676048642662e-11 
0.002150957089724149 0.01445952790032889 -0.008834082701457139 0.01019107672320531 -0.01679339233482215 0.01657321269158329 -0.004017538874642915 0.005348335514586657 -0.007323554127314937 -0.01330780175625801 
-4.360390660308892e-11 8.985871014982759e-11 7.608016565779511e-11 -1.973919557510046e-11 7.978292412287866e-11 -1.245832443433882e-11 1.150562362413589e-10 -1.501217086164594e-11 1.155288158455907e-11 -7.653082080772009e-11 
0.0006748288882684953 0.001329094578259984 -0.01067789905104765 0.006762826231457705 -0.0043113930726439 -0.001506091938292111 -0.001959334661423754 0.002155886867892158 0.008497004278281688 -0.000977607551301538 
1.153520275458259e-10 -9.293929428859663e-11 -7.640014835149656e-11 1.36492005579535e-11 3.584450685628243e-11 -6.983704666798317e-11 -7.703390595781195e-11 -2.403772302564383e-11 3.950244458909362e-11 8.832446743123741e-11 
-0.0003415127511592553 -0.006671509097648304 -0.005515436377786932 -0.002692670786400741 -0.007001859766249001 -0.008439014246538482 0.01201366740942039 0.002210598301822988 0.01031410790991347 0.02123326235553619 
8.198938341315384e-11 2.449744474313761e-11 -1.953029555554833e-10 3.83242112799165e-11 2.762603425452567e-11 9.867606244882387e-12 -4.848804454702162e-11 1.862073172421666e-11 5.985712104306097e-12 1.174872381962584e-10 
0.006771607463265881 0.01614919887550992 -0.009531367352341209 -0.005075621569626721 -0.01368528235665475 -0.005127289279686691 -0.02799232682772221 0.008824448639560965 -0.003472414027629245 0.002510578882090572 
-5.098385176498937e-11 -1.089194855950146e-11 -1.011516299771129e-10 -1.487864590077656e-11 4.46909981642123e-11 -1.908807745534407e-11 5.627171296469959e-11 -4.805932181246691e-11 1.344454696308575e-10 -1.334802311729174e-10 
-0.007234092649098288 0.01553809019868276 0.01642787087614631 0.005534632455367059 -0.001207077886144781 -0.005782507358076564 -0.01474505972593475 0.001018742750648411 -0.009412278813252599 0.008539885657697538 
-1.638868753483881e-11 -4.172651397212735e-11 5.119716485630613e-11 5.067890306351418e-11 -1.269547417276938e-10 2.998158922319075e-11 -1.029502341525937e-10 -3.044009680850893e-11 -6.640855541945258e-11 4.165456615881528e-11 
3.102884094047953e-05 0.01392694791625355 0.01191578286669941 0.005973650544715027 -0.001285465913855673 -0.001734645425729274 -0.002841429472700373 0.0006980859982287785 0.008598920405409988 -0.007052183799634137 
-2.934100741808527e-12 -2.720605201521995e-10 5.182763877035035e-11 -1.053462615143431e-12 -2.591388598747692e-11 -2.259551680081657e-11 1.732329683189845e-10 4.134153155376521e-11 3.302778455542261e-11 -9.799253013759405e-11 
0.008953046794975656 0.002053301181353829 -0.01195963714927088 0.004512239224379645 0.007384042802419039 0.004558470861249832 -0.02612385148119759 0.0001503001796628817 -0.01237033120233414 0.006704067983306066 
-3.652195615679004e-11 7.100193327051344e-11 4.843858271539909e-11 1.353548081953857e-11 -3.978199812783558e-11 1.240295440001643e-11 -1.007901120263546e-10 -6.061071814605382e-11 -1.520977862844654e-11 5.08510822387841e-11 
0.02272560084121644 -0.00322778088936958 -0.008272624813611748 -9.931117856861461e-05 -0.001707074431500485 -0.008619756636134603 0.01951580544771361 -0.0107078738415751 0.001163889831099157 -0.01236151928225334 
-8.402575147804939e-11 -7.693590643234174e-11 9.759559511081609e-12 2.838987378834567e-11 3.263834530967449e-11 3.759127066169454e-11 -2.911336483714281e-11 -1.389149014970368e-11 6.532313732537606e-11 -5.613499920334442e-11 
-0.01456991494139395 0.0107614696310707 -0.01179175617981483 0.003233081652198423 -0.02025237781558236 0.006224367934577881 -0.02178159981908744 -0.009791524461999702 0.00727705359688194 0.01216998534893169 
-5.516775883970513e-11 6.996952686740794e-12 8.489681194936917e-11 3.20680664453531e-11 -1.022711300002714e-10 2.542702809105671e-11 -1.859242333495257e-10 -9.076257602921919e-11 3.889721586652341e-11 2.523203148873013e-11 
-0.0008219259709727754 -0.00739977660055129 0.02094346378212395 0.001056687410460236 0.0005672271695156598 0.0003773382872477833 -3.859043494419069e-05 0.0005228707843259479 -0.006864852690147178 -0.005763484071299336 
9.928248633935752e-11 -1.243008203863527e-10 6.239943773641257e-12 -4.941346374974735e-11 3.574962878490407e-11 -2.491313642665922e-11 -2.126394564944695e-10 -4.996337651290527e-11 9.515813603496457e-11 1.033903703688842e-10 
-0.004536102685248022 -0.0174488123913095 0.006200358479820311 0.007897465707299328 0.0179694649075169 -0.005842941296756836 -0.00554356635961995 -0.002580181017407081 0.0009599461024760274 0.003991877301918839 
2.332272686943376e-11 -4.396287488371881e-11 -1.537605858804223e-11 6.252615171692066e-12 1.093973179732633e-11 -2.40353165662028e-11 -1.237805482148666e-10 2.425794407637023e-11 1.046350948868898e-10 1.585084187745274e-10 
-0.0131353590016156 0.008507419511841375 0.01524250720297925 -0.001135639806703367 -0.0192377534577624 -0.007967263002772727 -0.001531214031712598 0.01046443334833283 -0.001928687646109618 -0.01526993221539957 
5.743705035202888e-11 5.851218150380398e-11 -1.581621272239969e-11 -8.613753873107302e-12 1.24265676333134e-10 7.472580809400156e-11 -1.257920418912217e-10 4.081671419348308e-11 6.525056645569272e-11 -1.214403044499321e-10 
-0.01060820097174448 0.002449414609849633 0.01440845867054916 0.007787630177515147 0.00231460231510183 -0.006487043415009558 -0.006709171121217605 -0.004829683180681664 -0.01255770853922238 0.005972158888340787 
8.738215434525453e-12 5.314558683418197e-11 6.885018670531734e-12 4.30215082812461e-11 4.817532772634176e-11 -1.856348523011404e-11 1.047720269685116e-10 -1.86923498215029e-11 4.918256211402169e-11 7.626716439803218e-11 
-0.01195439980830846 -0.01010668801503265 0.01141954256045915 0.002174877090271136 -0.01693815907587213 0.005822446447096058 0.006501432510197254 -0.004653536363783712 0.004490418416992913 -0.009377272581584108 
-1.892735569236521e-11 2.096494528008079e-11 -1.365078066267901e-11 -4.492489587683601e-11 2.105906178163564e-10 -1.588448056773615e-11 8.882884096199466e-11 -4.855700433553862e-11 6.84715890838485e-11 -3.068980895011539e-11 
0.002404091004942597 -0.01497313574502899 0.02204544462258914 0.003171515736059388 -0.009889256531624285 0.008135725831082288 0.001483764150088503 0.0001151386213875471 -0.002992136436081115 -0.0248895219529647 
-1.864349878501296e-10 -7.284863051921415e-11 1.769053000974809e-10 -5.842225185077568e-12 6.940195438243958e-11 7.382526846720795e-11 -8.367341485357491e-11 9.160851254303486e-11 6.782699071650661e-11 -8.945324271162321e-11 
0.01661249201174206 0.008028959695394276 -0.01444082173794068 0.002691364525677681 0.001240322323367319 0.008105699466674278 -0.01092596474191863 0.006171057472944586 -0.001182027828246591 -0.01848520476405846 
-2.1159629867752e-11 -4.191055477910296e-12 -4.161801250670883e-11 -4.131572903409417e-11 -1.038393616973659e-10 7.611066827524568e-12 -7.295790526147222e-11 -2.662747000889453e-11 8.882100382683976e-11 1.825462604991945e-10 
0.006563771780786159 0.01103408530018888 0.005248581363307129 -0.004079789764164742 -0.01742841351979527 -0.004655173479104395 0.00477969235790974 -0.008874660707037157 -0.002249634212836852 0.03672480626097382 
3.350024330962218e-11 -4.929192173817086e-11 -2.805726577483628e-12 3.568393988592473e-12 3.369353476295113e-11 2.380042908478732e-12 -8.07476656377089e-11 1.664517629269385e-11 -9.759226839695858e-12 -3.040821186246227e-11 
-0.01116869394464878 -0.003531516714939979 -0.001520497972363238 0.001221842466028517 0.00432023780028883 0.007291924632822673 0.02960356440055415 -0.003695840732836382 -0.00441876336975813 -0.00443452754259765 
1.103593846080641e-10 8.238912446401149e-11 3.294885305888517e-11 -7.127714020270954e-11 -2.304169769214565e-10 -3.466831809552097e-12 -4.766850042301246e-11 3.541457370186428e-11 3.69062462213232e-12 -1.506894591363261e-11 
-0.02447917841025819 -0.007868077914960277 0.01866853905937187 -0.003754387698353657 -0.006470346611446183 -0.008206673439941381 0.01312303741002032 -0.006032600262435472 0.01117693117638774 0.02659634633442505 
-4.03269333616051e-11 7.563158892127806e-11 -9.127026170847199e-11 2.764124553327668e-11 -1.264888323840848e-10 -2.971967187321891e-11 9.705154614231626e-11 -4.643149003295488e-11 1.155779394172665e-10 1.569313475267008e-11 
-0.01486478337799136 0.0129037008368387 -0.01940760605337228 -0.004679345402211395 -0.002653056292746773 -0.006244727950885059 -0.005325009726541736 -0.005349751389719373 0.0001943719781563419 0.01133483460081332 
-9.013126753572212e-11 -1.751380490483154e-11 -3.212602565255306e-11 -2.288333700220058e-11 -9.583362236365436e-11 4.982379817253305e-11 9.947519103505245e-11 8.470836770720767e-11 1.679091411901248e-11 -9.980690758659304e-11 
0.01938558096453787 0.004489342714637039 -0.0003435196756204692 0.005944876546666407 -0.002817977646366405 -0.01076011366127463 -0.01185627109070062 -0.004554196497060614 0.0006147454813618071 -0.004147517342913594 
5.598351028949379e-11 -1.223322711275889e-10 8.136315706140925e-11 5.714063687125976e-11 6.504884310400717e-12 -6.555395734298429e-11 -7.976324234748454e-11 -1.984347671772105e-11 1.1978282464007e-10 5.756189746856244e-11 
0.008136261269900056 -0.003435414025628041 0.0139810428208801 -0.004110083317597099 0.009752509025259403 0.00721547587393274 0.0182781874002107 -0.01091872070462922 -0.00180930384985575 -0.01152032939177081 
1.087718212322293e-10 -1.450239710760346e-10 -5.559204753509141e-11 8.711371918802515e-12 -4.006114598391683e-11 4.73495236559767e-11 -1.715580650888994e-10 8.037492804966295e-12 -5.227547951934061e-11 -8.877117592785514e-11 
-0.01329885222162503 -0.02615409454554761 0.02247235709803883 -0.00973097049135167 -0.005217435456318669 0.0002695548317646739 0.008918724612385945 -0.004209309714906816 -0.006639511503484822 0.01033644231769341 
-1.102626379535808e-10 9.492856639418018e-11 5.83761800655928e-11 1.153424812955188e-11 -9.937892191111973e-12 -2.402428964622978e-12 -1.220402733281748e-10 3.25579043475536e-11 1.451993371328935e-11 1.501387843951713e-11 
0.003139485756546254 0.004814782363412783 -0.007240162929835504 -0.006112381017984338 -0.003052228121693449 0.003138924501750359 -0.01557727862086454 0.003025075554201534 -0.02036671696836668 0.01912831916825622 
1.191700015631704e-10 -1.227503392539866e-10 1.137453308451353e-11 -2.60367701274517e-11 -3.492223722826934e-11 2.704436300564071e-11 -1.229985055955112e-11 -5.672228052480178e-11 -8.168566587706563e-11 1.207225650263203e-10 
0.01483003688743856 -0.01019232181426645 -0.003152351951565852 0.004367345086962536 -0.0084100638395616 0.001139975442950209 -0.009923143226718929 -0.003063309337832567 0.00111250538453972 0.001701009212686855 
-9.793168563051698e-13 -2.51622100604168e-11 -5.755102567006152e-11 2.020137076836466e-11 -4.458659524731119e-11 1.916288441906095e-11 1.011273147358303e-10 -4.003026769751662e-11 -2.624304620160214e-11 -5.863321228093396e-11 
-0.01797893873388001 0.0147881881654716 0.01077361151210927 -0.005978983391062519 0.01861874738778629 0.005345039739452512 0.001529596399553815 -0.0004303261755357911 -0.007507380157456972 -0.005301316704609568 
1.344349211767558e-10 -9.308431647777452e-11 1.869151573327314e-11 -2.017232510120762e-11 -5.391738213759244e-11 -4.738539110788506e-11 -9.989648882778067e-11 -7.167248621403776e-12 6.865889741595855e-11 -3.637163683267338e-11 
-0.01443179120486942 -0.009552776148026224 0.002398955287930754 -0.01238008052906154 0.0004755192197444641 -0.005704480209982961 -0.02018875754707551 -0.005511849519807446 0.001425268101209837 0.02166677160616182 
1.24863387034465e-10 3.150999531904969e-11 4.918923005758116e-11 3.172297127319552e-11 -4.235103365133777e-11 1.000694706545996e-11 -7.466648132887969e-11 -7.523660456839776e-11 1.065283427454411e-10 -1.518394183655361e-10 
-0.01558307813230175 0.0109893370549712 -0.03275646209313567 -0.01047156060505984 0.00218463894563691 -0.002863269515585347 -0.006354965462999827 2.159411133575828e-05 0.0009271456075414131 0.01128010095055298 
7.783911496724989e-11 -7.689344874566984e-11 -9.600737057375178e-11 9.5219137731281e-12 1.832777679935884e-10 -3.355265270013186e-11 -2.809824184481568e-10 -7.865383819998152e-11 3.381885987549166e-11 1.398392330041112e-10 
0.009098832050179804 -0.01190459967550666 -0.008758521342358669 0.01120258169130646 0.02247461880169733 -0.005510715893806107 0.01547156394740294 0.001013790574502709 -0.01569798773280963 -0.01769180158784219 
1.121896768516462e-10 4.759314661390238e-11 -4.47223673932163e-11 2.017263855708579e-11 -5.246664378696282e-11 -8.531832137321626e-12 1.214525524373128e-10 5.295022354086107e-11 -6.437579847861693e-11 -1.394558323759907e-10 
